digraph Tree {
node [shape=box] ;
0 [label="Agency_Code <= 0.5\ngini = 0.42\nsamples = 2100\nvalue = [1471, 629]\nclass = No"] ;
1 [label="Sales <= 57.675\ngini = 0.484\nsamples = 670\nvalue = [276, 394]\nclass = Yes"] ;
0 -> 1 [labeldistance=2.5, labelangle=45, headlabel="True"] ;
2 [label="Sales <= 15.5\ngini = 0.496\nsamples = 377\nvalue = [206, 171]\nclass = No"] ;
1 -> 2 ;
3 [label="Sales <= 4.565\ngini = 0.245\nsamples = 70\nvalue = [60, 10]\nclass = No"] ;
2 -> 3 ;
4 [label="gini = 0.0\nsamples = 24\nvalue = [24, 0]\nclass = No"] ;
3 -> 4 ;
5 [label="Commision <= 3.775\ngini = 0.34\nsamples = 46\nvalue = [36, 10]\nclass = No"] ;
3 -> 5 ;
6 [label="Age <= 49.0\ngini = 0.453\nsamples = 26\nvalue = [17, 9]\nclass = No"] ;
5 -> 6 ;
7 [label="Duration <= 4.0\ngini = 0.483\nsamples = 22\nvalue = [13, 9]\nclass = No"] ;
6 -> 7 ;
8 [label="Commision <= 2.33\ngini = 0.219\nsamples = 8\nvalue = [7, 1]\nclass = No"] ;
7 -> 8 ;
9 [label="Commision <= 1.92\ngini = 0.444\nsamples = 3\nvalue = [2, 1]\nclass = No"] ;
8 -> 9 ;
10 [label="gini = 0.0\nsamples = 2\nvalue = [2, 0]\nclass = No"] ;
9 -> 10 ;
11 [label="gini = 0.0\nsamples = 1\nvalue = [0, 1]\nclass = Yes"] ;
9 -> 11 ;
12 [label="gini = 0.0\nsamples = 5\nvalue = [5, 0]\nclass = No"] ;
8 -> 12 ;
13 [label="Duration <= 69.0\ngini = 0.49\nsamples = 14\nvalue = [6, 8]\nclass = Yes"] ;
7 -> 13 ;
14 [label="Age <= 34.0\ngini = 0.397\nsamples = 11\nvalue = [3, 8]\nclass = Yes"] ;
13 -> 14 ;
15 [label="Age <= 22.5\ngini = 0.5\nsamples = 6\nvalue = [3, 3]\nclass = No"] ;
14 -> 15 ;
16 [label="gini = 0.0\nsamples = 1\nvalue = [0, 1]\nclass = Yes"] ;
15 -> 16 ;
17 [label="Duration <= 9.5\ngini = 0.48\nsamples = 5\nvalue = [3, 2]\nclass = No"] ;
15 -> 17 ;
18 [label="Age <= 29.5\ngini = 0.444\nsamples = 3\nvalue = [1, 2]\nclass = Yes"] ;
17 -> 18 ;
19 [label="gini = 0.0\nsamples = 2\nvalue = [0, 2]\nclass = Yes"] ;
18 -> 19 ;
20 [label="gini = 0.0\nsamples = 1\nvalue = [1, 0]\nclass = No"] ;
18 -> 20 ;
21 [label="gini = 0.0\nsamples = 2\nvalue = [2, 0]\nclass = No"] ;
17 -> 21 ;
22 [label="gini = 0.0\nsamples = 5\nvalue = [0, 5]\nclass = Yes"] ;
14 -> 22 ;
23 [label="gini = 0.0\nsamples = 3\nvalue = [3, 0]\nclass = No"] ;
13 -> 23 ;
24 [label="gini = 0.0\nsamples = 4\nvalue = [4, 0]\nclass = No"] ;
6 -> 24 ;
25 [label="Age <= 54.5\ngini = 0.095\nsamples = 20\nvalue = [19, 1]\nclass = No"] ;
5 -> 25 ;
26 [label="gini = 0.0\nsamples = 16\nvalue = [16, 0]\nclass = No"] ;
25 -> 26 ;
27 [label="Duration <= 7.5\ngini = 0.375\nsamples = 4\nvalue = [3, 1]\nclass = No"] ;
25 -> 27 ;
28 [label="gini = 0.0\nsamples = 1\nvalue = [0, 1]\nclass = Yes"] ;
27 -> 28 ;
29 [label="gini = 0.0\nsamples = 3\nvalue = [3, 0]\nclass = No"] ;
27 -> 29 ;
30 [label="Commision <= 14.145\ngini = 0.499\nsamples = 307\nvalue = [146, 161]\nclass = Yes"] ;
2 -> 30 ;
31 [label="Duration <= 7.5\ngini = 0.495\nsamples = 292\nvalue = [132, 160]\nclass = Yes"] ;
30 -> 31 ;
32 [label="Age <= 36.5\ngini = 0.48\nsamples = 60\nvalue = [36, 24]\nclass = No"] ;
31 -> 32 ;
33 [label="Sales <= 26.0\ngini = 0.394\nsamples = 37\nvalue = [27, 10]\nclass = No"] ;
32 -> 33 ;
34 [label="Duration <= 4.5\ngini = 0.48\nsamples = 25\nvalue = [15, 10]\nclass = No"] ;
33 -> 34 ;
35 [label="gini = 0.0\nsamples = 5\nvalue = [5, 0]\nclass = No"] ;
34 -> 35 ;
36 [label="Product Name <= 2.0\ngini = 0.5\nsamples = 20\nvalue = [10, 10]\nclass = No"] ;
34 -> 36 ;
37 [label="Duration <= 6.5\ngini = 0.484\nsamples = 17\nvalue = [10, 7]\nclass = No"] ;
36 -> 37 ;
38 [label="Age <= 25.5\ngini = 0.497\nsamples = 13\nvalue = [6, 7]\nclass = Yes"] ;
37 -> 38 ;
39 [label="gini = 0.0\nsamples = 1\nvalue = [1, 0]\nclass = No"] ;
38 -> 39 ;
40 [label="Age <= 27.5\ngini = 0.486\nsamples = 12\nvalue = [5, 7]\nclass = Yes"] ;
38 -> 40 ;
41 [label="gini = 0.0\nsamples = 2\nvalue = [0, 2]\nclass = Yes"] ;
40 -> 41 ;
42 [label="Sales <= 16.775\ngini = 0.5\nsamples = 10\nvalue = [5, 5]\nclass = No"] ;
40 -> 42 ;
43 [label="Age <= 29.5\ngini = 0.375\nsamples = 4\nvalue = [3, 1]\nclass = No"] ;
42 -> 43 ;
44 [label="Age <= 28.5\ngini = 0.5\nsamples = 2\nvalue = [1, 1]\nclass = No"] ;
43 -> 44 ;
45 [label="gini = 0.0\nsamples = 1\nvalue = [1, 0]\nclass = No"] ;
44 -> 45 ;
46 [label="gini = 0.0\nsamples = 1\nvalue = [0, 1]\nclass = Yes"] ;
44 -> 46 ;
47 [label="gini = 0.0\nsamples = 2\nvalue = [2, 0]\nclass = No"] ;
43 -> 47 ;
48 [label="Age <= 29.5\ngini = 0.444\nsamples = 6\nvalue = [2, 4]\nclass = Yes"] ;
42 -> 48 ;
49 [label="gini = 0.0\nsamples = 1\nvalue = [1, 0]\nclass = No"] ;
48 -> 49 ;
50 [label="Age <= 33.0\ngini = 0.32\nsamples = 5\nvalue = [1, 4]\nclass = Yes"] ;
48 -> 50 ;
51 [label="gini = 0.0\nsamples = 4\nvalue = [0, 4]\nclass = Yes"] ;
50 -> 51 ;
52 [label="gini = 0.0\nsamples = 1\nvalue = [1, 0]\nclass = No"] ;
50 -> 52 ;
53 [label="gini = 0.0\nsamples = 4\nvalue = [4, 0]\nclass = No"] ;
37 -> 53 ;
54 [label="gini = 0.0\nsamples = 3\nvalue = [0, 3]\nclass = Yes"] ;
36 -> 54 ;
55 [label="gini = 0.0\nsamples = 12\nvalue = [12, 0]\nclass = No"] ;
33 -> 55 ;
56 [label="Age <= 44.5\ngini = 0.476\nsamples = 23\nvalue = [9, 14]\nclass = Yes"] ;
32 -> 56 ;
57 [label="Sales <= 29.25\ngini = 0.18\nsamples = 10\nvalue = [1, 9]\nclass = Yes"] ;
56 -> 57 ;
58 [label="gini = 0.0\nsamples = 9\nvalue = [0, 9]\nclass = Yes"] ;
57 -> 58 ;
59 [label="gini = 0.0\nsamples = 1\nvalue = [1, 0]\nclass = No"] ;
57 -> 59 ;
60 [label="Product Name <= 3.5\ngini = 0.473\nsamples = 13\nvalue = [8, 5]\nclass = No"] ;
56 -> 60 ;
61 [label="Duration <= 5.0\ngini = 0.444\nsamples = 6\nvalue = [2, 4]\nclass = Yes"] ;
60 -> 61 ;
62 [label="Duration <= 2.0\ngini = 0.444\nsamples = 3\nvalue = [2, 1]\nclass = No"] ;
61 -> 62 ;
63 [label="gini = 0.0\nsamples = 1\nvalue = [0, 1]\nclass = Yes"] ;
62 -> 63 ;
64 [label="gini = 0.0\nsamples = 2\nvalue = [2, 0]\nclass = No"] ;
62 -> 64 ;
65 [label="gini = 0.0\nsamples = 3\nvalue = [0, 3]\nclass = Yes"] ;
61 -> 65 ;
66 [label="Age <= 54.5\ngini = 0.245\nsamples = 7\nvalue = [6, 1]\nclass = No"] ;
60 -> 66 ;
67 [label="gini = 0.0\nsamples = 5\nvalue = [5, 0]\nclass = No"] ;
66 -> 67 ;
68 [label="Commision <= 6.285\ngini = 0.5\nsamples = 2\nvalue = [1, 1]\nclass = No"] ;
66 -> 68 ;
69 [label="gini = 0.0\nsamples = 1\nvalue = [0, 1]\nclass = Yes"] ;
68 -> 69 ;
70 [label="gini = 0.0\nsamples = 1\nvalue = [1, 0]\nclass = No"] ;
68 -> 70 ;
71 [label="Duration <= 12.5\ngini = 0.485\nsamples = 232\nvalue = [96, 136]\nclass = Yes"] ;
31 -> 71 ;
72 [label="Age <= 46.5\ngini = 0.43\nsamples = 64\nvalue = [20, 44]\nclass = Yes"] ;
71 -> 72 ;
73 [label="Commision <= 4.125\ngini = 0.388\nsamples = 57\nvalue = [15, 42]\nclass = Yes"] ;
72 -> 73 ;
74 [label="gini = 0.0\nsamples = 2\nvalue = [2, 0]\nclass = No"] ;
73 -> 74 ;
75 [label="Sales <= 50.75\ngini = 0.361\nsamples = 55\nvalue = [13, 42]\nclass = Yes"] ;
73 -> 75 ;
76 [label="Sales <= 22.3\ngini = 0.329\nsamples = 53\nvalue = [11, 42]\nclass = Yes"] ;
75 -> 76 ;
77 [label="Commision <= 4.565\ngini = 0.432\nsamples = 19\nvalue = [6, 13]\nclass = Yes"] ;
76 -> 77 ;
78 [label="gini = 0.0\nsamples = 5\nvalue = [0, 5]\nclass = Yes"] ;
77 -> 78 ;
79 [label="Age <= 21.5\ngini = 0.49\nsamples = 14\nvalue = [6, 8]\nclass = Yes"] ;
77 -> 79 ;
80 [label="gini = 0.0\nsamples = 2\nvalue = [0, 2]\nclass = Yes"] ;
79 -> 80 ;
81 [label="Age <= 27.5\ngini = 0.5\nsamples = 12\nvalue = [6, 6]\nclass = No"] ;
79 -> 81 ;
82 [label="gini = 0.0\nsamples = 2\nvalue = [2, 0]\nclass = No"] ;
81 -> 82 ;
83 [label="Age <= 29.5\ngini = 0.48\nsamples = 10\nvalue = [4, 6]\nclass = Yes"] ;
81 -> 83 ;
84 [label="gini = 0.0\nsamples = 3\nvalue = [0, 3]\nclass = Yes"] ;
83 -> 84 ;
85 [label="Age <= 41.5\ngini = 0.49\nsamples = 7\nvalue = [4, 3]\nclass = No"] ;
83 -> 85 ;
86 [label="Sales <= 21.55\ngini = 0.444\nsamples = 6\nvalue = [4, 2]\nclass = No"] ;
85 -> 86 ;
87 [label="Duration <= 11.5\ngini = 0.48\nsamples = 5\nvalue = [3, 2]\nclass = No"] ;
86 -> 87 ;
88 [label="Age <= 37.5\ngini = 0.375\nsamples = 4\nvalue = [3, 1]\nclass = No"] ;
87 -> 88 ;
89 [label="gini = 0.0\nsamples = 2\nvalue = [2, 0]\nclass = No"] ;
88 -> 89 ;
90 [label="Sales <= 20.5\ngini = 0.5\nsamples = 2\nvalue = [1, 1]\nclass = No"] ;
88 -> 90 ;
91 [label="gini = 0.0\nsamples = 1\nvalue = [1, 0]\nclass = No"] ;
90 -> 91 ;
92 [label="gini = 0.0\nsamples = 1\nvalue = [0, 1]\nclass = Yes"] ;
90 -> 92 ;
93 [label="gini = 0.0\nsamples = 1\nvalue = [0, 1]\nclass = Yes"] ;
87 -> 93 ;
94 [label="gini = 0.0\nsamples = 1\nvalue = [1, 0]\nclass = No"] ;
86 -> 94 ;
95 [label="gini = 0.0\nsamples = 1\nvalue = [0, 1]\nclass = Yes"] ;
85 -> 95 ;
96 [label="Sales <= 28.2\ngini = 0.251\nsamples = 34\nvalue = [5, 29]\nclass = Yes"] ;
76 -> 96 ;
97 [label="gini = 0.0\nsamples = 15\nvalue = [0, 15]\nclass = Yes"] ;
96 -> 97 ;
98 [label="Sales <= 29.45\ngini = 0.388\nsamples = 19\nvalue = [5, 14]\nclass = Yes"] ;
96 -> 98 ;
99 [label="gini = 0.0\nsamples = 1\nvalue = [1, 0]\nclass = No"] ;
98 -> 99 ;
100 [label="Product Name <= 1.5\ngini = 0.346\nsamples = 18\nvalue = [4, 14]\nclass = Yes"] ;
98 -> 100 ;
101 [label="Commision <= 7.555\ngini = 0.5\nsamples = 6\nvalue = [3, 3]\nclass = No"] ;
100 -> 101 ;
102 [label="gini = 0.0\nsamples = 2\nvalue = [2, 0]\nclass = No"] ;
101 -> 102 ;
103 [label="Duration <= 11.5\ngini = 0.375\nsamples = 4\nvalue = [1, 3]\nclass = Yes"] ;
101 -> 103 ;
104 [label="Duration <= 9.5\ngini = 0.5\nsamples = 2\nvalue = [1, 1]\nclass = No"] ;
103 -> 104 ;
105 [label="gini = 0.0\nsamples = 1\nvalue = [0, 1]\nclass = Yes"] ;
104 -> 105 ;
106 [label="gini = 0.0\nsamples = 1\nvalue = [1, 0]\nclass = No"] ;
104 -> 106 ;
107 [label="gini = 0.0\nsamples = 2\nvalue = [0, 2]\nclass = Yes"] ;
103 -> 107 ;
108 [label="Duration <= 9.5\ngini = 0.153\nsamples = 12\nvalue = [1, 11]\nclass = Yes"] ;
100 -> 108 ;
109 [label="Age <= 33.5\ngini = 0.278\nsamples = 6\nvalue = [1, 5]\nclass = Yes"] ;
108 -> 109 ;
110 [label="Age <= 30.5\ngini = 0.444\nsamples = 3\nvalue = [1, 2]\nclass = Yes"] ;
109 -> 110 ;
111 [label="gini = 0.0\nsamples = 2\nvalue = [0, 2]\nclass = Yes"] ;
110 -> 111 ;
112 [label="gini = 0.0\nsamples = 1\nvalue = [1, 0]\nclass = No"] ;
110 -> 112 ;
113 [label="gini = 0.0\nsamples = 3\nvalue = [0, 3]\nclass = Yes"] ;
109 -> 113 ;
114 [label="gini = 0.0\nsamples = 6\nvalue = [0, 6]\nclass = Yes"] ;
108 -> 114 ;
115 [label="gini = 0.0\nsamples = 2\nvalue = [2, 0]\nclass = No"] ;
75 -> 115 ;
116 [label="Sales <= 17.75\ngini = 0.408\nsamples = 7\nvalue = [5, 2]\nclass = No"] ;
72 -> 116 ;
117 [label="gini = 0.0\nsamples = 1\nvalue = [0, 1]\nclass = Yes"] ;
116 -> 117 ;
118 [label="Age <= 56.5\ngini = 0.278\nsamples = 6\nvalue = [5, 1]\nclass = No"] ;
116 -> 118 ;
119 [label="gini = 0.0\nsamples = 4\nvalue = [4, 0]\nclass = No"] ;
118 -> 119 ;
120 [label="Sales <= 23.5\ngini = 0.5\nsamples = 2\nvalue = [1, 1]\nclass = No"] ;
118 -> 120 ;
121 [label="gini = 0.0\nsamples = 1\nvalue = [1, 0]\nclass = No"] ;
120 -> 121 ;
122 [label="gini = 0.0\nsamples = 1\nvalue = [0, 1]\nclass = Yes"] ;
120 -> 122 ;
123 [label="Sales <= 32.25\ngini = 0.495\nsamples = 168\nvalue = [76, 92]\nclass = Yes"] ;
71 -> 123 ;
124 [label="Commision <= 7.425\ngini = 0.497\nsamples = 76\nvalue = [41, 35]\nclass = No"] ;
123 -> 124 ;
125 [label="Age <= 27.0\ngini = 0.49\nsamples = 58\nvalue = [25, 33]\nclass = Yes"] ;
124 -> 125 ;
126 [label="Age <= 23.0\ngini = 0.444\nsamples = 15\nvalue = [10, 5]\nclass = No"] ;
125 -> 126 ;
127 [label="Age <= 20.0\ngini = 0.375\nsamples = 4\nvalue = [1, 3]\nclass = Yes"] ;
126 -> 127 ;
128 [label="gini = 0.0\nsamples = 1\nvalue = [1, 0]\nclass = No"] ;
127 -> 128 ;
129 [label="gini = 0.0\nsamples = 3\nvalue = [0, 3]\nclass = Yes"] ;
127 -> 129 ;
130 [label="Commision <= 5.64\ngini = 0.298\nsamples = 11\nvalue = [9, 2]\nclass = No"] ;
126 -> 130 ;
131 [label="Sales <= 21.55\ngini = 0.48\nsamples = 5\nvalue = [3, 2]\nclass = No"] ;
130 -> 131 ;
132 [label="gini = 0.0\nsamples = 3\nvalue = [3, 0]\nclass = No"] ;
131 -> 132 ;
133 [label="gini = 0.0\nsamples = 2\nvalue = [0, 2]\nclass = Yes"] ;
131 -> 133 ;
134 [label="gini = 0.0\nsamples = 6\nvalue = [6, 0]\nclass = No"] ;
130 -> 134 ;
135 [label="Duration <= 60.0\ngini = 0.454\nsamples = 43\nvalue = [15, 28]\nclass = Yes"] ;
125 -> 135 ;
136 [label="Duration <= 13.5\ngini = 0.426\nsamples = 39\nvalue = [12, 27]\nclass = Yes"] ;
135 -> 136 ;
137 [label="Age <= 30.5\ngini = 0.48\nsamples = 5\nvalue = [3, 2]\nclass = No"] ;
136 -> 137 ;
138 [label="gini = 0.0\nsamples = 2\nvalue = [0, 2]\nclass = Yes"] ;
137 -> 138 ;
139 [label="gini = 0.0\nsamples = 3\nvalue = [3, 0]\nclass = No"] ;
137 -> 139 ;
140 [label="Sales <= 23.75\ngini = 0.389\nsamples = 34\nvalue = [9, 25]\nclass = Yes"] ;
136 -> 140 ;
141 [label="Age <= 39.5\ngini = 0.469\nsamples = 24\nvalue = [9, 15]\nclass = Yes"] ;
140 -> 141 ;
142 [label="Duration <= 19.5\ngini = 0.401\nsamples = 18\nvalue = [5, 13]\nclass = Yes"] ;
141 -> 142 ;
143 [label="Sales <= 19.25\ngini = 0.5\nsamples = 6\nvalue = [3, 3]\nclass = No"] ;
142 -> 143 ;
144 [label="gini = 0.0\nsamples = 2\nvalue = [2, 0]\nclass = No"] ;
143 -> 144 ;
145 [label="Sales <= 23.0\ngini = 0.375\nsamples = 4\nvalue = [1, 3]\nclass = Yes"] ;
143 -> 145 ;
146 [label="gini = 0.0\nsamples = 3\nvalue = [0, 3]\nclass = Yes"] ;
145 -> 146 ;
147 [label="gini = 0.0\nsamples = 1\nvalue = [1, 0]\nclass = No"] ;
145 -> 147 ;
148 [label="Age <= 29.0\ngini = 0.278\nsamples = 12\nvalue = [2, 10]\nclass = Yes"] ;
142 -> 148 ;
149 [label="Duration <= 34.5\ngini = 0.48\nsamples = 5\nvalue = [2, 3]\nclass = Yes"] ;
148 -> 149 ;
150 [label="Duration <= 24.0\ngini = 0.375\nsamples = 4\nvalue = [1, 3]\nclass = Yes"] ;
149 -> 150 ;
151 [label="Sales <= 21.05\ngini = 0.5\nsamples = 2\nvalue = [1, 1]\nclass = No"] ;
150 -> 151 ;
152 [label="gini = 0.0\nsamples = 1\nvalue = [1, 0]\nclass = No"] ;
151 -> 152 ;
153 [label="gini = 0.0\nsamples = 1\nvalue = [0, 1]\nclass = Yes"] ;
151 -> 153 ;
154 [label="gini = 0.0\nsamples = 2\nvalue = [0, 2]\nclass = Yes"] ;
150 -> 154 ;
155 [label="gini = 0.0\nsamples = 1\nvalue = [1, 0]\nclass = No"] ;
149 -> 155 ;
156 [label="gini = 0.0\nsamples = 7\nvalue = [0, 7]\nclass = Yes"] ;
148 -> 156 ;
157 [label="Duration <= 43.5\ngini = 0.444\nsamples = 6\nvalue = [4, 2]\nclass = No"] ;
141 -> 157 ;
158 [label="Duration <= 19.5\ngini = 0.32\nsamples = 5\nvalue = [4, 1]\nclass = No"] ;
157 -> 158 ;
159 [label="Age <= 41.0\ngini = 0.5\nsamples = 2\nvalue = [1, 1]\nclass = No"] ;
158 -> 159 ;
160 [label="gini = 0.0\nsamples = 1\nvalue = [1, 0]\nclass = No"] ;
159 -> 160 ;
161 [label="gini = 0.0\nsamples = 1\nvalue = [0, 1]\nclass = Yes"] ;
159 -> 161 ;
162 [label="gini = 0.0\nsamples = 3\nvalue = [3, 0]\nclass = No"] ;
158 -> 162 ;
163 [label="gini = 0.0\nsamples = 1\nvalue = [0, 1]\nclass = Yes"] ;
157 -> 163 ;
164 [label="gini = 0.0\nsamples = 10\nvalue = [0, 10]\nclass = Yes"] ;
140 -> 164 ;
165 [label="Duration <= 124.0\ngini = 0.375\nsamples = 4\nvalue = [3, 1]\nclass = No"] ;
135 -> 165 ;
166 [label="gini = 0.0\nsamples = 3\nvalue = [3, 0]\nclass = No"] ;
165 -> 166 ;
167 [label="gini = 0.0\nsamples = 1\nvalue = [0, 1]\nclass = Yes"] ;
165 -> 167 ;
168 [label="Age <= 22.5\ngini = 0.198\nsamples = 18\nvalue = [16, 2]\nclass = No"] ;
124 -> 168 ;
169 [label="Age <= 21.5\ngini = 0.5\nsamples = 2\nvalue = [1, 1]\nclass = No"] ;
168 -> 169 ;
170 [label="gini = 0.0\nsamples = 1\nvalue = [1, 0]\nclass = No"] ;
169 -> 170 ;
171 [label="gini = 0.0\nsamples = 1\nvalue = [0, 1]\nclass = Yes"] ;
169 -> 171 ;
172 [label="Commision <= 7.655\ngini = 0.117\nsamples = 16\nvalue = [15, 1]\nclass = No"] ;
168 -> 172 ;
173 [label="Age <= 31.0\ngini = 0.32\nsamples = 5\nvalue = [4, 1]\nclass = No"] ;
172 -> 173 ;
174 [label="gini = 0.0\nsamples = 3\nvalue = [3, 0]\nclass = No"] ;
173 -> 174 ;
175 [label="Duration <= 83.5\ngini = 0.5\nsamples = 2\nvalue = [1, 1]\nclass = No"] ;
173 -> 175 ;
176 [label="gini = 0.0\nsamples = 1\nvalue = [0, 1]\nclass = Yes"] ;
175 -> 176 ;
177 [label="gini = 0.0\nsamples = 1\nvalue = [1, 0]\nclass = No"] ;
175 -> 177 ;
178 [label="gini = 0.0\nsamples = 11\nvalue = [11, 0]\nclass = No"] ;
172 -> 178 ;
179 [label="Duration <= 128.5\ngini = 0.471\nsamples = 92\nvalue = [35, 57]\nclass = Yes"] ;
123 -> 179 ;
180 [label="Duration <= 86.0\ngini = 0.463\nsamples = 88\nvalue = [32, 56]\nclass = Yes"] ;
179 -> 180 ;
181 [label="Duration <= 72.0\ngini = 0.476\nsamples = 82\nvalue = [32, 50]\nclass = Yes"] ;
180 -> 181 ;
182 [label="Age <= 34.5\ngini = 0.469\nsamples = 80\nvalue = [30, 50]\nclass = Yes"] ;
181 -> 182 ;
183 [label="Commision <= 11.87\ngini = 0.418\nsamples = 47\nvalue = [14, 33]\nclass = Yes"] ;
182 -> 183 ;
184 [label="Commision <= 8.505\ngini = 0.475\nsamples = 31\nvalue = [12, 19]\nclass = Yes"] ;
183 -> 184 ;
185 [label="Age <= 30.5\ngini = 0.219\nsamples = 8\nvalue = [1, 7]\nclass = Yes"] ;
184 -> 185 ;
186 [label="gini = 0.0\nsamples = 5\nvalue = [0, 5]\nclass = Yes"] ;
185 -> 186 ;
187 [label="Duration <= 26.0\ngini = 0.444\nsamples = 3\nvalue = [1, 2]\nclass = Yes"] ;
185 -> 187 ;
188 [label="gini = 0.0\nsamples = 2\nvalue = [0, 2]\nclass = Yes"] ;
187 -> 188 ;
189 [label="gini = 0.0\nsamples = 1\nvalue = [1, 0]\nclass = No"] ;
187 -> 189 ;
190 [label="Duration <= 15.5\ngini = 0.499\nsamples = 23\nvalue = [11, 12]\nclass = Yes"] ;
184 -> 190 ;
191 [label="Age <= 25.5\ngini = 0.375\nsamples = 8\nvalue = [6, 2]\nclass = No"] ;
190 -> 191 ;
192 [label="gini = 0.0\nsamples = 5\nvalue = [5, 0]\nclass = No"] ;
191 -> 192 ;
193 [label="Age <= 28.0\ngini = 0.444\nsamples = 3\nvalue = [1, 2]\nclass = Yes"] ;
191 -> 193 ;
194 [label="gini = 0.0\nsamples = 2\nvalue = [0, 2]\nclass = Yes"] ;
193 -> 194 ;
195 [label="gini = 0.0\nsamples = 1\nvalue = [1, 0]\nclass = No"] ;
193 -> 195 ;
196 [label="Age <= 25.5\ngini = 0.444\nsamples = 15\nvalue = [5, 10]\nclass = Yes"] ;
190 -> 196 ;
197 [label="gini = 0.0\nsamples = 4\nvalue = [0, 4]\nclass = Yes"] ;
196 -> 197 ;
198 [label="Sales <= 35.375\ngini = 0.496\nsamples = 11\nvalue = [5, 6]\nclass = Yes"] ;
196 -> 198 ;
199 [label="gini = 0.0\nsamples = 1\nvalue = [1, 0]\nclass = No"] ;
198 -> 199 ;
200 [label="Duration <= 27.5\ngini = 0.48\nsamples = 10\nvalue = [4, 6]\nclass = Yes"] ;
198 -> 200 ;
201 [label="gini = 0.0\nsamples = 3\nvalue = [0, 3]\nclass = Yes"] ;
200 -> 201 ;
202 [label="Product Name <= 2.0\ngini = 0.49\nsamples = 7\nvalue = [4, 3]\nclass = No"] ;
200 -> 202 ;
203 [label="Age <= 33.5\ngini = 0.48\nsamples = 5\nvalue = [2, 3]\nclass = Yes"] ;
202 -> 203 ;
204 [label="Sales <= 37.25\ngini = 0.375\nsamples = 4\nvalue = [1, 3]\nclass = Yes"] ;
203 -> 204 ;
205 [label="gini = 0.0\nsamples = 1\nvalue = [1, 0]\nclass = No"] ;
204 -> 205 ;
206 [label="gini = 0.0\nsamples = 3\nvalue = [0, 3]\nclass = Yes"] ;
204 -> 206 ;
207 [label="gini = 0.0\nsamples = 1\nvalue = [1, 0]\nclass = No"] ;
203 -> 207 ;
208 [label="gini = 0.0\nsamples = 2\nvalue = [2, 0]\nclass = No"] ;
202 -> 208 ;
209 [label="Duration <= 27.5\ngini = 0.219\nsamples = 16\nvalue = [2, 14]\nclass = Yes"] ;
183 -> 209 ;
210 [label="gini = 0.0\nsamples = 8\nvalue = [0, 8]\nclass = Yes"] ;
209 -> 210 ;
211 [label="Age <= 29.5\ngini = 0.375\nsamples = 8\nvalue = [2, 6]\nclass = Yes"] ;
209 -> 211 ;
212 [label="Sales <= 52.25\ngini = 0.245\nsamples = 7\nvalue = [1, 6]\nclass = Yes"] ;
211 -> 212 ;
213 [label="gini = 0.0\nsamples = 3\nvalue = [0, 3]\nclass = Yes"] ;
212 -> 213 ;
214 [label="Duration <= 34.0\ngini = 0.375\nsamples = 4\nvalue = [1, 3]\nclass = Yes"] ;
212 -> 214 ;
215 [label="gini = 0.0\nsamples = 2\nvalue = [0, 2]\nclass = Yes"] ;
214 -> 215 ;
216 [label="Age <= 28.5\ngini = 0.5\nsamples = 2\nvalue = [1, 1]\nclass = No"] ;
214 -> 216 ;
217 [label="gini = 0.0\nsamples = 1\nvalue = [1, 0]\nclass = No"] ;
216 -> 217 ;
218 [label="gini = 0.0\nsamples = 1\nvalue = [0, 1]\nclass = Yes"] ;
216 -> 218 ;
219 [label="gini = 0.0\nsamples = 1\nvalue = [1, 0]\nclass = No"] ;
211 -> 219 ;
220 [label="Duration <= 18.5\ngini = 0.5\nsamples = 33\nvalue = [16, 17]\nclass = Yes"] ;
182 -> 220 ;
221 [label="Duration <= 16.5\ngini = 0.391\nsamples = 15\nvalue = [11, 4]\nclass = No"] ;
220 -> 221 ;
222 [label="Sales <= 50.65\ngini = 0.463\nsamples = 11\nvalue = [7, 4]\nclass = No"] ;
221 -> 222 ;
223 [label="Commision <= 11.125\ngini = 0.5\nsamples = 8\nvalue = [4, 4]\nclass = No"] ;
222 -> 223 ;
224 [label="Age <= 52.5\ngini = 0.32\nsamples = 5\nvalue = [4, 1]\nclass = No"] ;
223 -> 224 ;
225 [label="gini = 0.0\nsamples = 4\nvalue = [4, 0]\nclass = No"] ;
224 -> 225 ;
226 [label="gini = 0.0\nsamples = 1\nvalue = [0, 1]\nclass = Yes"] ;
224 -> 226 ;
227 [label="gini = 0.0\nsamples = 3\nvalue = [0, 3]\nclass = Yes"] ;
223 -> 227 ;
228 [label="gini = 0.0\nsamples = 3\nvalue = [3, 0]\nclass = No"] ;
222 -> 228 ;
229 [label="gini = 0.0\nsamples = 4\nvalue = [4, 0]\nclass = No"] ;
221 -> 229 ;
230 [label="Commision <= 8.615\ngini = 0.401\nsamples = 18\nvalue = [5, 13]\nclass = Yes"] ;
220 -> 230 ;
231 [label="Duration <= 31.0\ngini = 0.444\nsamples = 3\nvalue = [2, 1]\nclass = No"] ;
230 -> 231 ;
232 [label="gini = 0.0\nsamples = 1\nvalue = [1, 0]\nclass = No"] ;
231 -> 232 ;
233 [label="Age <= 52.5\ngini = 0.5\nsamples = 2\nvalue = [1, 1]\nclass = No"] ;
231 -> 233 ;
234 [label="gini = 0.0\nsamples = 1\nvalue = [1, 0]\nclass = No"] ;
233 -> 234 ;
235 [label="gini = 0.0\nsamples = 1\nvalue = [0, 1]\nclass = Yes"] ;
233 -> 235 ;
236 [label="Product Name <= 2.0\ngini = 0.32\nsamples = 15\nvalue = [3, 12]\nclass = Yes"] ;
230 -> 236 ;
237 [label="Age <= 39.0\ngini = 0.42\nsamples = 10\nvalue = [3, 7]\nclass = Yes"] ;
236 -> 237 ;
238 [label="Sales <= 46.75\ngini = 0.444\nsamples = 3\nvalue = [2, 1]\nclass = No"] ;
237 -> 238 ;
239 [label="gini = 0.0\nsamples = 1\nvalue = [0, 1]\nclass = Yes"] ;
238 -> 239 ;
240 [label="gini = 0.0\nsamples = 2\nvalue = [2, 0]\nclass = No"] ;
238 -> 240 ;
241 [label="Duration <= 31.0\ngini = 0.245\nsamples = 7\nvalue = [1, 6]\nclass = Yes"] ;
237 -> 241 ;
242 [label="Duration <= 24.5\ngini = 0.5\nsamples = 2\nvalue = [1, 1]\nclass = No"] ;
241 -> 242 ;
243 [label="gini = 0.0\nsamples = 1\nvalue = [0, 1]\nclass = Yes"] ;
242 -> 243 ;
244 [label="gini = 0.0\nsamples = 1\nvalue = [1, 0]\nclass = No"] ;
242 -> 244 ;
245 [label="gini = 0.0\nsamples = 5\nvalue = [0, 5]\nclass = Yes"] ;
241 -> 245 ;
246 [label="gini = 0.0\nsamples = 5\nvalue = [0, 5]\nclass = Yes"] ;
236 -> 246 ;
247 [label="gini = 0.0\nsamples = 2\nvalue = [2, 0]\nclass = No"] ;
181 -> 247 ;
248 [label="gini = 0.0\nsamples = 6\nvalue = [0, 6]\nclass = Yes"] ;
180 -> 248 ;
249 [label="Sales <= 36.75\ngini = 0.375\nsamples = 4\nvalue = [3, 1]\nclass = No"] ;
179 -> 249 ;
250 [label="gini = 0.0\nsamples = 1\nvalue = [0, 1]\nclass = Yes"] ;
249 -> 250 ;
251 [label="gini = 0.0\nsamples = 3\nvalue = [3, 0]\nclass = No"] ;
249 -> 251 ;
252 [label="Product Name <= 3.5\ngini = 0.124\nsamples = 15\nvalue = [14, 1]\nclass = No"] ;
30 -> 252 ;
253 [label="gini = 0.0\nsamples = 13\nvalue = [13, 0]\nclass = No"] ;
252 -> 253 ;
254 [label="Sales <= 22.25\ngini = 0.5\nsamples = 2\nvalue = [1, 1]\nclass = No"] ;
252 -> 254 ;
255 [label="gini = 0.0\nsamples = 1\nvalue = [0, 1]\nclass = Yes"] ;
254 -> 255 ;
256 [label="gini = 0.0\nsamples = 1\nvalue = [1, 0]\nclass = No"] ;
254 -> 256 ;
257 [label="Duration <= 12.5\ngini = 0.364\nsamples = 293\nvalue = [70, 223]\nclass = Yes"] ;
1 -> 257 ;
258 [label="Age <= 35.0\ngini = 0.198\nsamples = 9\nvalue = [8, 1]\nclass = No"] ;
257 -> 258 ;
259 [label="Duration <= 9.5\ngini = 0.444\nsamples = 3\nvalue = [2, 1]\nclass = No"] ;
258 -> 259 ;
260 [label="gini = 0.0\nsamples = 2\nvalue = [2, 0]\nclass = No"] ;
259 -> 260 ;
261 [label="gini = 0.0\nsamples = 1\nvalue = [0, 1]\nclass = Yes"] ;
259 -> 261 ;
262 [label="gini = 0.0\nsamples = 6\nvalue = [6, 0]\nclass = No"] ;
258 -> 262 ;
263 [label="Commision <= 15.625\ngini = 0.341\nsamples = 284\nvalue = [62, 222]\nclass = Yes"] ;
257 -> 263 ;
264 [label="Commision <= 3.275\ngini = 0.083\nsamples = 23\nvalue = [1, 22]\nclass = Yes"] ;
263 -> 264 ;
265 [label="gini = 0.0\nsamples = 1\nvalue = [1, 0]\nclass = No"] ;
264 -> 265 ;
266 [label="gini = 0.0\nsamples = 22\nvalue = [0, 22]\nclass = Yes"] ;
264 -> 266 ;
267 [label="Sales <= 62.715\ngini = 0.358\nsamples = 261\nvalue = [61, 200]\nclass = Yes"] ;
263 -> 267 ;
268 [label="gini = 0.0\nsamples = 2\nvalue = [2, 0]\nclass = No"] ;
267 -> 268 ;
269 [label="Age <= 26.5\ngini = 0.352\nsamples = 259\nvalue = [59, 200]\nclass = Yes"] ;
267 -> 269 ;
270 [label="Sales <= 64.325\ngini = 0.457\nsamples = 34\nvalue = [12, 22]\nclass = Yes"] ;
269 -> 270 ;
271 [label="gini = 0.0\nsamples = 1\nvalue = [1, 0]\nclass = No"] ;
270 -> 271 ;
272 [label="Commision <= 19.255\ngini = 0.444\nsamples = 33\nvalue = [11, 22]\nclass = Yes"] ;
270 -> 272 ;
273 [label="gini = 0.0\nsamples = 4\nvalue = [0, 4]\nclass = Yes"] ;
272 -> 273 ;
274 [label="Duration <= 21.0\ngini = 0.471\nsamples = 29\nvalue = [11, 18]\nclass = Yes"] ;
272 -> 274 ;
275 [label="gini = 0.0\nsamples = 1\nvalue = [1, 0]\nclass = No"] ;
274 -> 275 ;
276 [label="Commision <= 21.255\ngini = 0.459\nsamples = 28\nvalue = [10, 18]\nclass = Yes"] ;
274 -> 276 ;
277 [label="gini = 0.0\nsamples = 1\nvalue = [1, 0]\nclass = No"] ;
276 -> 277 ;
278 [label="Sales <= 94.75\ngini = 0.444\nsamples = 27\nvalue = [9, 18]\nclass = Yes"] ;
276 -> 278 ;
279 [label="gini = 0.0\nsamples = 3\nvalue = [0, 3]\nclass = Yes"] ;
278 -> 279 ;
280 [label="Commision <= 24.44\ngini = 0.469\nsamples = 24\nvalue = [9, 15]\nclass = Yes"] ;
278 -> 280 ;
281 [label="gini = 0.0\nsamples = 2\nvalue = [2, 0]\nclass = No"] ;
280 -> 281 ;
282 [label="Age <= 25.5\ngini = 0.434\nsamples = 22\nvalue = [7, 15]\nclass = Yes"] ;
280 -> 282 ;
283 [label="Product Name <= 3.5\ngini = 0.337\nsamples = 14\nvalue = [3, 11]\nclass = Yes"] ;
282 -> 283 ;
284 [label="Age <= 23.5\ngini = 0.48\nsamples = 5\nvalue = [2, 3]\nclass = Yes"] ;
283 -> 284 ;
285 [label="gini = 0.0\nsamples = 2\nvalue = [0, 2]\nclass = Yes"] ;
284 -> 285 ;
286 [label="Sales <= 133.25\ngini = 0.444\nsamples = 3\nvalue = [2, 1]\nclass = No"] ;
284 -> 286 ;
287 [label="gini = 0.0\nsamples = 1\nvalue = [0, 1]\nclass = Yes"] ;
286 -> 287 ;
288 [label="gini = 0.0\nsamples = 2\nvalue = [2, 0]\nclass = No"] ;
286 -> 288 ;
289 [label="Commision <= 41.669\ngini = 0.198\nsamples = 9\nvalue = [1, 8]\nclass = Yes"] ;
283 -> 289 ;
290 [label="Sales <= 121.5\ngini = 0.5\nsamples = 2\nvalue = [1, 1]\nclass = No"] ;
289 -> 290 ;
291 [label="gini = 0.0\nsamples = 1\nvalue = [0, 1]\nclass = Yes"] ;
290 -> 291 ;
292 [label="gini = 0.0\nsamples = 1\nvalue = [1, 0]\nclass = No"] ;
290 -> 292 ;
293 [label="gini = 0.0\nsamples = 7\nvalue = [0, 7]\nclass = Yes"] ;
289 -> 293 ;
294 [label="Product Name <= 2.0\ngini = 0.5\nsamples = 8\nvalue = [4, 4]\nclass = No"] ;
282 -> 294 ;
295 [label="gini = 0.0\nsamples = 1\nvalue = [1, 0]\nclass = No"] ;
294 -> 295 ;
296 [label="Commision <= 41.669\ngini = 0.49\nsamples = 7\nvalue = [3, 4]\nclass = Yes"] ;
294 -> 296 ;
297 [label="gini = 0.0\nsamples = 1\nvalue = [0, 1]\nclass = Yes"] ;
296 -> 297 ;
298 [label="gini = 0.5\nsamples = 6\nvalue = [3, 3]\nclass = No"] ;
296 -> 298 ;
299 [label="Age <= 53.5\ngini = 0.331\nsamples = 225\nvalue = [47, 178]\nclass = Yes"] ;
269 -> 299 ;
300 [label="Duration <= 23.5\ngini = 0.303\nsamples = 193\nvalue = [36, 157]\nclass = Yes"] ;
299 -> 300 ;
301 [label="Duration <= 16.5\ngini = 0.483\nsamples = 22\nvalue = [9, 13]\nclass = Yes"] ;
300 -> 301 ;
302 [label="Commision <= 18.28\ngini = 0.198\nsamples = 9\nvalue = [1, 8]\nclass = Yes"] ;
301 -> 302 ;
303 [label="Age <= 34.5\ngini = 0.444\nsamples = 3\nvalue = [1, 2]\nclass = Yes"] ;
302 -> 303 ;
304 [label="gini = 0.0\nsamples = 1\nvalue = [0, 1]\nclass = Yes"] ;
303 -> 304 ;
305 [label="Age <= 40.5\ngini = 0.5\nsamples = 2\nvalue = [1, 1]\nclass = No"] ;
303 -> 305 ;
306 [label="gini = 0.0\nsamples = 1\nvalue = [1, 0]\nclass = No"] ;
305 -> 306 ;
307 [label="gini = 0.0\nsamples = 1\nvalue = [0, 1]\nclass = Yes"] ;
305 -> 307 ;
308 [label="gini = 0.0\nsamples = 6\nvalue = [0, 6]\nclass = Yes"] ;
302 -> 308 ;
309 [label="Age <= 41.5\ngini = 0.473\nsamples = 13\nvalue = [8, 5]\nclass = No"] ;
301 -> 309 ;
310 [label="Product Name <= 3.5\ngini = 0.397\nsamples = 11\nvalue = [8, 3]\nclass = No"] ;
309 -> 310 ;
311 [label="gini = 0.0\nsamples = 4\nvalue = [4, 0]\nclass = No"] ;
310 -> 311 ;
312 [label="Age <= 30.5\ngini = 0.49\nsamples = 7\nvalue = [4, 3]\nclass = No"] ;
310 -> 312 ;
313 [label="gini = 0.0\nsamples = 2\nvalue = [2, 0]\nclass = No"] ;
312 -> 313 ;
314 [label="Age <= 32.0\ngini = 0.48\nsamples = 5\nvalue = [2, 3]\nclass = Yes"] ;
312 -> 314 ;
315 [label="gini = 0.0\nsamples = 2\nvalue = [0, 2]\nclass = Yes"] ;
314 -> 315 ;
316 [label="Commision <= 17.855\ngini = 0.444\nsamples = 3\nvalue = [2, 1]\nclass = No"] ;
314 -> 316 ;
317 [label="gini = 0.0\nsamples = 1\nvalue = [1, 0]\nclass = No"] ;
316 -> 317 ;
318 [label="Age <= 34.5\ngini = 0.5\nsamples = 2\nvalue = [1, 1]\nclass = No"] ;
316 -> 318 ;
319 [label="gini = 0.0\nsamples = 1\nvalue = [0, 1]\nclass = Yes"] ;
318 -> 319 ;
320 [label="gini = 0.0\nsamples = 1\nvalue = [1, 0]\nclass = No"] ;
318 -> 320 ;
321 [label="gini = 0.0\nsamples = 2\nvalue = [0, 2]\nclass = Yes"] ;
309 -> 321 ;
322 [label="Age <= 44.5\ngini = 0.266\nsamples = 171\nvalue = [27, 144]\nclass = Yes"] ;
300 -> 322 ;
323 [label="Commision <= 17.32\ngini = 0.298\nsamples = 137\nvalue = [25, 112]\nclass = Yes"] ;
322 -> 323 ;
324 [label="gini = 0.0\nsamples = 8\nvalue = [0, 8]\nclass = Yes"] ;
323 -> 324 ;
325 [label="Sales <= 76.25\ngini = 0.312\nsamples = 129\nvalue = [25, 104]\nclass = Yes"] ;
323 -> 325 ;
326 [label="Duration <= 63.0\ngini = 0.49\nsamples = 7\nvalue = [4, 3]\nclass = No"] ;
325 -> 326 ;
327 [label="gini = 0.0\nsamples = 3\nvalue = [3, 0]\nclass = No"] ;
326 -> 327 ;
328 [label="Age <= 35.5\ngini = 0.375\nsamples = 4\nvalue = [1, 3]\nclass = Yes"] ;
326 -> 328 ;
329 [label="gini = 0.0\nsamples = 3\nvalue = [0, 3]\nclass = Yes"] ;
328 -> 329 ;
330 [label="gini = 0.0\nsamples = 1\nvalue = [1, 0]\nclass = No"] ;
328 -> 330 ;
331 [label="Duration <= 37.5\ngini = 0.285\nsamples = 122\nvalue = [21, 101]\nclass = Yes"] ;
325 -> 331 ;
332 [label="gini = 0.0\nsamples = 7\nvalue = [0, 7]\nclass = Yes"] ;
331 -> 332 ;
333 [label="Duration <= 40.5\ngini = 0.299\nsamples = 115\nvalue = [21, 94]\nclass = Yes"] ;
331 -> 333 ;
334 [label="gini = 0.0\nsamples = 1\nvalue = [1, 0]\nclass = No"] ;
333 -> 334 ;
335 [label="Commision <= 33.065\ngini = 0.289\nsamples = 114\nvalue = [20, 94]\nclass = Yes"] ;
333 -> 335 ;
336 [label="gini = 0.0\nsamples = 7\nvalue = [0, 7]\nclass = Yes"] ;
335 -> 336 ;
337 [label="Sales <= 139.5\ngini = 0.304\nsamples = 107\nvalue = [20, 87]\nclass = Yes"] ;
335 -> 337 ;
338 [label="gini = 0.0\nsamples = 1\nvalue = [1, 0]\nclass = No"] ;
337 -> 338 ;
339 [label="Commision <= 43.074\ngini = 0.294\nsamples = 106\nvalue = [19, 87]\nclass = Yes"] ;
337 -> 339 ;
340 [label="gini = 0.0\nsamples = 7\nvalue = [0, 7]\nclass = Yes"] ;
339 -> 340 ;
341 [label="Age <= 33.5\ngini = 0.31\nsamples = 99\nvalue = [19, 80]\nclass = Yes"] ;
339 -> 341 ;
342 [label="Age <= 31.5\ngini = 0.36\nsamples = 51\nvalue = [12, 39]\nclass = Yes"] ;
341 -> 342 ;
343 [label="Product Name <= 1.5\ngini = 0.272\nsamples = 37\nvalue = [6, 31]\nclass = Yes"] ;
342 -> 343 ;
344 [label="Duration <= 110.0\ngini = 0.5\nsamples = 2\nvalue = [1, 1]\nclass = No"] ;
343 -> 344 ;
345 [label="gini = 0.0\nsamples = 1\nvalue = [0, 1]\nclass = Yes"] ;
344 -> 345 ;
346 [label="gini = 0.0\nsamples = 1\nvalue = [1, 0]\nclass = No"] ;
344 -> 346 ;
347 [label="Age <= 27.5\ngini = 0.245\nsamples = 35\nvalue = [5, 30]\nclass = Yes"] ;
343 -> 347 ;
348 [label="Product Name <= 3.5\ngini = 0.444\nsamples = 6\nvalue = [2, 4]\nclass = Yes"] ;
347 -> 348 ;
349 [label="gini = 0.0\nsamples = 1\nvalue = [0, 1]\nclass = Yes"] ;
348 -> 349 ;
350 [label="gini = 0.48\nsamples = 5\nvalue = [2, 3]\nclass = Yes"] ;
348 -> 350 ;
351 [label="Age <= 30.5\ngini = 0.185\nsamples = 29\nvalue = [3, 26]\nclass = Yes"] ;
347 -> 351 ;
352 [label="Age <= 28.5\ngini = 0.117\nsamples = 16\nvalue = [1, 15]\nclass = Yes"] ;
351 -> 352 ;
353 [label="Product Name <= 3.5\ngini = 0.278\nsamples = 6\nvalue = [1, 5]\nclass = Yes"] ;
352 -> 353 ;
354 [label="gini = 0.0\nsamples = 1\nvalue = [0, 1]\nclass = Yes"] ;
353 -> 354 ;
355 [label="gini = 0.32\nsamples = 5\nvalue = [1, 4]\nclass = Yes"] ;
353 -> 355 ;
356 [label="gini = 0.0\nsamples = 10\nvalue = [0, 10]\nclass = Yes"] ;
352 -> 356 ;
357 [label="Product Name <= 3.5\ngini = 0.26\nsamples = 13\nvalue = [2, 11]\nclass = Yes"] ;
351 -> 357 ;
358 [label="gini = 0.0\nsamples = 2\nvalue = [0, 2]\nclass = Yes"] ;
357 -> 358 ;
359 [label="gini = 0.298\nsamples = 11\nvalue = [2, 9]\nclass = Yes"] ;
357 -> 359 ;
360 [label="Duration <= 115.5\ngini = 0.49\nsamples = 14\nvalue = [6, 8]\nclass = Yes"] ;
342 -> 360 ;
361 [label="gini = 0.0\nsamples = 1\nvalue = [0, 1]\nclass = Yes"] ;
360 -> 361 ;
362 [label="Age <= 32.5\ngini = 0.497\nsamples = 13\nvalue = [6, 7]\nclass = Yes"] ;
360 -> 362 ;
363 [label="Product Name <= 3.5\ngini = 0.494\nsamples = 9\nvalue = [4, 5]\nclass = Yes"] ;
362 -> 363 ;
364 [label="gini = 0.5\nsamples = 2\nvalue = [1, 1]\nclass = No"] ;
363 -> 364 ;
365 [label="gini = 0.49\nsamples = 7\nvalue = [3, 4]\nclass = Yes"] ;
363 -> 365 ;
366 [label="gini = 0.5\nsamples = 4\nvalue = [2, 2]\nclass = No"] ;
362 -> 366 ;
367 [label="Age <= 39.5\ngini = 0.249\nsamples = 48\nvalue = [7, 41]\nclass = Yes"] ;
341 -> 367 ;
368 [label="Age <= 35.5\ngini = 0.083\nsamples = 23\nvalue = [1, 22]\nclass = Yes"] ;
367 -> 368 ;
369 [label="Age <= 34.5\ngini = 0.18\nsamples = 10\nvalue = [1, 9]\nclass = Yes"] ;
368 -> 369 ;
370 [label="gini = 0.0\nsamples = 3\nvalue = [0, 3]\nclass = Yes"] ;
369 -> 370 ;
371 [label="Duration <= 125.5\ngini = 0.245\nsamples = 7\nvalue = [1, 6]\nclass = Yes"] ;
369 -> 371 ;
372 [label="gini = 0.0\nsamples = 1\nvalue = [0, 1]\nclass = Yes"] ;
371 -> 372 ;
373 [label="gini = 0.278\nsamples = 6\nvalue = [1, 5]\nclass = Yes"] ;
371 -> 373 ;
374 [label="gini = 0.0\nsamples = 13\nvalue = [0, 13]\nclass = Yes"] ;
368 -> 374 ;
375 [label="Age <= 41.5\ngini = 0.365\nsamples = 25\nvalue = [6, 19]\nclass = Yes"] ;
367 -> 375 ;
376 [label="Product Name <= 3.5\ngini = 0.32\nsamples = 10\nvalue = [2, 8]\nclass = Yes"] ;
375 -> 376 ;
377 [label="gini = 0.0\nsamples = 1\nvalue = [0, 1]\nclass = Yes"] ;
376 -> 377 ;
378 [label="Age <= 40.5\ngini = 0.346\nsamples = 9\nvalue = [2, 7]\nclass = Yes"] ;
376 -> 378 ;
379 [label="gini = 0.444\nsamples = 3\nvalue = [1, 2]\nclass = Yes"] ;
378 -> 379 ;
380 [label="gini = 0.278\nsamples = 6\nvalue = [1, 5]\nclass = Yes"] ;
378 -> 380 ;
381 [label="Age <= 42.5\ngini = 0.391\nsamples = 15\nvalue = [4, 11]\nclass = Yes"] ;
375 -> 381 ;
382 [label="Product Name <= 3.5\ngini = 0.48\nsamples = 5\nvalue = [2, 3]\nclass = Yes"] ;
381 -> 382 ;
383 [label="gini = 0.0\nsamples = 1\nvalue = [1, 0]\nclass = No"] ;
382 -> 383 ;
384 [label="gini = 0.375\nsamples = 4\nvalue = [1, 3]\nclass = Yes"] ;
382 -> 384 ;
385 [label="Product Name <= 3.5\ngini = 0.32\nsamples = 10\nvalue = [2, 8]\nclass = Yes"] ;
381 -> 385 ;
386 [label="gini = 0.0\nsamples = 2\nvalue = [0, 2]\nclass = Yes"] ;
385 -> 386 ;
387 [label="Age <= 43.5\ngini = 0.375\nsamples = 8\nvalue = [2, 6]\nclass = Yes"] ;
385 -> 387 ;
388 [label="gini = 0.444\nsamples = 3\nvalue = [1, 2]\nclass = Yes"] ;
387 -> 388 ;
389 [label="gini = 0.32\nsamples = 5\nvalue = [1, 4]\nclass = Yes"] ;
387 -> 389 ;
390 [label="Age <= 49.5\ngini = 0.111\nsamples = 34\nvalue = [2, 32]\nclass = Yes"] ;
322 -> 390 ;
391 [label="gini = 0.0\nsamples = 20\nvalue = [0, 20]\nclass = Yes"] ;
390 -> 391 ;
392 [label="Duration <= 122.5\ngini = 0.245\nsamples = 14\nvalue = [2, 12]\nclass = Yes"] ;
390 -> 392 ;
393 [label="gini = 0.0\nsamples = 4\nvalue = [0, 4]\nclass = Yes"] ;
392 -> 393 ;
394 [label="Age <= 50.5\ngini = 0.32\nsamples = 10\nvalue = [2, 8]\nclass = Yes"] ;
392 -> 394 ;
395 [label="gini = 0.0\nsamples = 1\nvalue = [1, 0]\nclass = No"] ;
394 -> 395 ;
396 [label="Age <= 52.5\ngini = 0.198\nsamples = 9\nvalue = [1, 8]\nclass = Yes"] ;
394 -> 396 ;
397 [label="gini = 0.0\nsamples = 5\nvalue = [0, 5]\nclass = Yes"] ;
396 -> 397 ;
398 [label="gini = 0.375\nsamples = 4\nvalue = [1, 3]\nclass = Yes"] ;
396 -> 398 ;
399 [label="Sales <= 140.0\ngini = 0.451\nsamples = 32\nvalue = [11, 21]\nclass = Yes"] ;
299 -> 399 ;
400 [label="gini = 0.0\nsamples = 10\nvalue = [0, 10]\nclass = Yes"] ;
399 -> 400 ;
401 [label="Age <= 56.5\ngini = 0.5\nsamples = 22\nvalue = [11, 11]\nclass = No"] ;
399 -> 401 ;
402 [label="gini = 0.0\nsamples = 3\nvalue = [3, 0]\nclass = No"] ;
401 -> 402 ;
403 [label="Duration <= 93.5\ngini = 0.488\nsamples = 19\nvalue = [8, 11]\nclass = Yes"] ;
401 -> 403 ;
404 [label="gini = 0.0\nsamples = 3\nvalue = [3, 0]\nclass = No"] ;
403 -> 404 ;
405 [label="Commision <= 41.669\ngini = 0.43\nsamples = 16\nvalue = [5, 11]\nclass = Yes"] ;
403 -> 405 ;
406 [label="gini = 0.0\nsamples = 1\nvalue = [1, 0]\nclass = No"] ;
405 -> 406 ;
407 [label="Duration <= 138.0\ngini = 0.391\nsamples = 15\nvalue = [4, 11]\nclass = Yes"] ;
405 -> 407 ;
408 [label="gini = 0.0\nsamples = 2\nvalue = [0, 2]\nclass = Yes"] ;
407 -> 408 ;
409 [label="Product Name <= 3.5\ngini = 0.426\nsamples = 13\nvalue = [4, 9]\nclass = Yes"] ;
407 -> 409 ;
410 [label="gini = 0.5\nsamples = 4\nvalue = [2, 2]\nclass = No"] ;
409 -> 410 ;
411 [label="gini = 0.346\nsamples = 9\nvalue = [2, 7]\nclass = Yes"] ;
409 -> 411 ;
412 [label="Sales <= 32.5\ngini = 0.275\nsamples = 1430\nvalue = [1195, 235]\nclass = No"] ;
0 -> 412 [labeldistance=2.5, labelangle=-45, headlabel="False"] ;
413 [label="Product Name <= 1.5\ngini = 0.161\nsamples = 783\nvalue = [714, 69]\nclass = No"] ;
412 -> 413 ;
414 [label="Agency_Code <= 1.5\ngini = 0.097\nsamples = 430\nvalue = [408, 22]\nclass = No"] ;
413 -> 414 ;
415 [label="Duration <= 12.5\ngini = 0.48\nsamples = 5\nvalue = [3, 2]\nclass = No"] ;
414 -> 415 ;
416 [label="gini = 0.0\nsamples = 1\nvalue = [1, 0]\nclass = No"] ;
415 -> 416 ;
417 [label="Duration <= 18.5\ngini = 0.5\nsamples = 4\nvalue = [2, 2]\nclass = No"] ;
415 -> 417 ;
418 [label="gini = 0.0\nsamples = 1\nvalue = [0, 1]\nclass = Yes"] ;
417 -> 418 ;
419 [label="Duration <= 23.5\ngini = 0.444\nsamples = 3\nvalue = [2, 1]\nclass = No"] ;
417 -> 419 ;
420 [label="gini = 0.0\nsamples = 1\nvalue = [1, 0]\nclass = No"] ;
419 -> 420 ;
421 [label="Duration <= 41.5\ngini = 0.5\nsamples = 2\nvalue = [1, 1]\nclass = No"] ;
419 -> 421 ;
422 [label="gini = 0.0\nsamples = 1\nvalue = [0, 1]\nclass = Yes"] ;
421 -> 422 ;
423 [label="gini = 0.0\nsamples = 1\nvalue = [1, 0]\nclass = No"] ;
421 -> 423 ;
424 [label="Duration <= 26.5\ngini = 0.09\nsamples = 425\nvalue = [405, 20]\nclass = No"] ;
414 -> 424 ;
425 [label="Sales <= 28.5\ngini = 0.054\nsamples = 253\nvalue = [246, 7]\nclass = No"] ;
424 -> 425 ;
426 [label="Age <= 43.5\ngini = 0.041\nsamples = 239\nvalue = [234, 5]\nclass = No"] ;
425 -> 426 ;
427 [label="Sales <= 16.5\ngini = 0.022\nsamples = 184\nvalue = [182, 2]\nclass = No"] ;
426 -> 427 ;
428 [label="gini = 0.0\nsamples = 107\nvalue = [107, 0]\nclass = No"] ;
427 -> 428 ;
429 [label="Sales <= 17.5\ngini = 0.051\nsamples = 77\nvalue = [75, 2]\nclass = No"] ;
427 -> 429 ;
430 [label="Duration <= 8.0\ngini = 0.245\nsamples = 7\nvalue = [6, 1]\nclass = No"] ;
429 -> 430 ;
431 [label="Duration <= 5.5\ngini = 0.444\nsamples = 3\nvalue = [2, 1]\nclass = No"] ;
430 -> 431 ;
432 [label="gini = 0.0\nsamples = 2\nvalue = [2, 0]\nclass = No"] ;
431 -> 432 ;
433 [label="gini = 0.0\nsamples = 1\nvalue = [0, 1]\nclass = Yes"] ;
431 -> 433 ;
434 [label="gini = 0.0\nsamples = 4\nvalue = [4, 0]\nclass = No"] ;
430 -> 434 ;
435 [label="Sales <= 23.5\ngini = 0.028\nsamples = 70\nvalue = [69, 1]\nclass = No"] ;
429 -> 435 ;
436 [label="gini = 0.0\nsamples = 47\nvalue = [47, 0]\nclass = No"] ;
435 -> 436 ;
437 [label="Sales <= 24.5\ngini = 0.083\nsamples = 23\nvalue = [22, 1]\nclass = No"] ;
435 -> 437 ;
438 [label="Duration <= 12.5\ngini = 0.219\nsamples = 8\nvalue = [7, 1]\nclass = No"] ;
437 -> 438 ;
439 [label="gini = 0.0\nsamples = 5\nvalue = [5, 0]\nclass = No"] ;
438 -> 439 ;
440 [label="Duration <= 17.0\ngini = 0.444\nsamples = 3\nvalue = [2, 1]\nclass = No"] ;
438 -> 440 ;
441 [label="gini = 0.0\nsamples = 1\nvalue = [0, 1]\nclass = Yes"] ;
440 -> 441 ;
442 [label="gini = 0.0\nsamples = 2\nvalue = [2, 0]\nclass = No"] ;
440 -> 442 ;
443 [label="gini = 0.0\nsamples = 15\nvalue = [15, 0]\nclass = No"] ;
437 -> 443 ;
444 [label="Age <= 47.5\ngini = 0.103\nsamples = 55\nvalue = [52, 3]\nclass = No"] ;
426 -> 444 ;
445 [label="Duration <= 7.5\ngini = 0.278\nsamples = 18\nvalue = [15, 3]\nclass = No"] ;
444 -> 445 ;
446 [label="gini = 0.0\nsamples = 5\nvalue = [5, 0]\nclass = No"] ;
445 -> 446 ;
447 [label="Duration <= 10.5\ngini = 0.355\nsamples = 13\nvalue = [10, 3]\nclass = No"] ;
445 -> 447 ;
448 [label="Product Name <= 0.5\ngini = 0.444\nsamples = 3\nvalue = [1, 2]\nclass = Yes"] ;
447 -> 448 ;
449 [label="Age <= 46.0\ngini = 0.5\nsamples = 2\nvalue = [1, 1]\nclass = No"] ;
448 -> 449 ;
450 [label="gini = 0.0\nsamples = 1\nvalue = [1, 0]\nclass = No"] ;
449 -> 450 ;
451 [label="gini = 0.0\nsamples = 1\nvalue = [0, 1]\nclass = Yes"] ;
449 -> 451 ;
452 [label="gini = 0.0\nsamples = 1\nvalue = [0, 1]\nclass = Yes"] ;
448 -> 452 ;
453 [label="Age <= 44.5\ngini = 0.18\nsamples = 10\nvalue = [9, 1]\nclass = No"] ;
447 -> 453 ;
454 [label="Type <= 0.5\ngini = 0.444\nsamples = 3\nvalue = [2, 1]\nclass = No"] ;
453 -> 454 ;
455 [label="gini = 0.0\nsamples = 1\nvalue = [0, 1]\nclass = Yes"] ;
454 -> 455 ;
456 [label="gini = 0.0\nsamples = 2\nvalue = [2, 0]\nclass = No"] ;
454 -> 456 ;
457 [label="gini = 0.0\nsamples = 7\nvalue = [7, 0]\nclass = No"] ;
453 -> 457 ;
458 [label="gini = 0.0\nsamples = 37\nvalue = [37, 0]\nclass = No"] ;
444 -> 458 ;
459 [label="Age <= 35.5\ngini = 0.245\nsamples = 14\nvalue = [12, 2]\nclass = No"] ;
425 -> 459 ;
460 [label="Age <= 31.5\ngini = 0.5\nsamples = 2\nvalue = [1, 1]\nclass = No"] ;
459 -> 460 ;
461 [label="gini = 0.0\nsamples = 1\nvalue = [1, 0]\nclass = No"] ;
460 -> 461 ;
462 [label="gini = 0.0\nsamples = 1\nvalue = [0, 1]\nclass = Yes"] ;
460 -> 462 ;
463 [label="Duration <= 20.0\ngini = 0.153\nsamples = 12\nvalue = [11, 1]\nclass = No"] ;
459 -> 463 ;
464 [label="gini = 0.0\nsamples = 9\nvalue = [9, 0]\nclass = No"] ;
463 -> 464 ;
465 [label="Sales <= 29.5\ngini = 0.444\nsamples = 3\nvalue = [2, 1]\nclass = No"] ;
463 -> 465 ;
466 [label="gini = 0.5\nsamples = 2\nvalue = [1, 1]\nclass = No"] ;
465 -> 466 ;
467 [label="gini = 0.0\nsamples = 1\nvalue = [1, 0]\nclass = No"] ;
465 -> 467 ;
468 [label="Duration <= 27.5\ngini = 0.14\nsamples = 172\nvalue = [159, 13]\nclass = No"] ;
424 -> 468 ;
469 [label="Commision <= 3.85\ngini = 0.5\nsamples = 4\nvalue = [2, 2]\nclass = No"] ;
468 -> 469 ;
470 [label="Age <= 37.0\ngini = 0.444\nsamples = 3\nvalue = [2, 1]\nclass = No"] ;
469 -> 470 ;
471 [label="Sales <= 11.5\ngini = 0.5\nsamples = 2\nvalue = [1, 1]\nclass = No"] ;
470 -> 471 ;
472 [label="gini = 0.0\nsamples = 1\nvalue = [1, 0]\nclass = No"] ;
471 -> 472 ;
473 [label="gini = 0.0\nsamples = 1\nvalue = [0, 1]\nclass = Yes"] ;
471 -> 473 ;
474 [label="gini = 0.0\nsamples = 1\nvalue = [1, 0]\nclass = No"] ;
470 -> 474 ;
475 [label="gini = 0.0\nsamples = 1\nvalue = [0, 1]\nclass = Yes"] ;
469 -> 475 ;
476 [label="Destination <= 1.5\ngini = 0.122\nsamples = 168\nvalue = [157, 11]\nclass = No"] ;
468 -> 476 ;
477 [label="Sales <= 20.5\ngini = 0.113\nsamples = 166\nvalue = [156, 10]\nclass = No"] ;
476 -> 477 ;
478 [label="Type <= 0.5\ngini = 0.147\nsamples = 100\nvalue = [92, 8]\nclass = No"] ;
477 -> 478 ;
479 [label="Sales <= 9.0\ngini = 0.444\nsamples = 3\nvalue = [2, 1]\nclass = No"] ;
478 -> 479 ;
480 [label="gini = 0.0\nsamples = 1\nvalue = [1, 0]\nclass = No"] ;
479 -> 480 ;
481 [label="Age <= 41.0\ngini = 0.5\nsamples = 2\nvalue = [1, 1]\nclass = No"] ;
479 -> 481 ;
482 [label="gini = 0.0\nsamples = 1\nvalue = [1, 0]\nclass = No"] ;
481 -> 482 ;
483 [label="gini = 0.0\nsamples = 1\nvalue = [0, 1]\nclass = Yes"] ;
481 -> 483 ;
484 [label="Age <= 30.5\ngini = 0.134\nsamples = 97\nvalue = [90, 7]\nclass = No"] ;
478 -> 484 ;
485 [label="gini = 0.0\nsamples = 16\nvalue = [16, 0]\nclass = No"] ;
484 -> 485 ;
486 [label="Age <= 35.5\ngini = 0.158\nsamples = 81\nvalue = [74, 7]\nclass = No"] ;
484 -> 486 ;
487 [label="Duration <= 44.0\ngini = 0.375\nsamples = 8\nvalue = [6, 2]\nclass = No"] ;
486 -> 487 ;
488 [label="gini = 0.0\nsamples = 2\nvalue = [0, 2]\nclass = Yes"] ;
487 -> 488 ;
489 [label="gini = 0.0\nsamples = 6\nvalue = [6, 0]\nclass = No"] ;
487 -> 489 ;
490 [label="Duration <= 72.5\ngini = 0.128\nsamples = 73\nvalue = [68, 5]\nclass = No"] ;
486 -> 490 ;
491 [label="Age <= 51.5\ngini = 0.077\nsamples = 50\nvalue = [48, 2]\nclass = No"] ;
490 -> 491 ;
492 [label="Sales <= 19.5\ngini = 0.042\nsamples = 47\nvalue = [46, 1]\nclass = No"] ;
491 -> 492 ;
493 [label="gini = 0.0\nsamples = 41\nvalue = [41, 0]\nclass = No"] ;
492 -> 493 ;
494 [label="Duration <= 50.5\ngini = 0.278\nsamples = 6\nvalue = [5, 1]\nclass = No"] ;
492 -> 494 ;
495 [label="Duration <= 44.5\ngini = 0.5\nsamples = 2\nvalue = [1, 1]\nclass = No"] ;
494 -> 495 ;
496 [label="gini = 0.0\nsamples = 1\nvalue = [1, 0]\nclass = No"] ;
495 -> 496 ;
497 [label="gini = 0.0\nsamples = 1\nvalue = [0, 1]\nclass = Yes"] ;
495 -> 497 ;
498 [label="gini = 0.0\nsamples = 4\nvalue = [4, 0]\nclass = No"] ;
494 -> 498 ;
499 [label="Age <= 54.5\ngini = 0.444\nsamples = 3\nvalue = [2, 1]\nclass = No"] ;
491 -> 499 ;
500 [label="gini = 0.0\nsamples = 1\nvalue = [0, 1]\nclass = Yes"] ;
499 -> 500 ;
501 [label="gini = 0.0\nsamples = 2\nvalue = [2, 0]\nclass = No"] ;
499 -> 501 ;
502 [label="Duration <= 74.5\ngini = 0.227\nsamples = 23\nvalue = [20, 3]\nclass = No"] ;
490 -> 502 ;
503 [label="gini = 0.0\nsamples = 1\nvalue = [0, 1]\nclass = Yes"] ;
502 -> 503 ;
504 [label="Sales <= 14.5\ngini = 0.165\nsamples = 22\nvalue = [20, 2]\nclass = No"] ;
502 -> 504 ;
505 [label="Duration <= 102.5\ngini = 0.278\nsamples = 12\nvalue = [10, 2]\nclass = No"] ;
504 -> 505 ;
506 [label="Duration <= 88.0\ngini = 0.5\nsamples = 2\nvalue = [1, 1]\nclass = No"] ;
505 -> 506 ;
507 [label="gini = 0.0\nsamples = 1\nvalue = [1, 0]\nclass = No"] ;
506 -> 507 ;
508 [label="gini = 0.0\nsamples = 1\nvalue = [0, 1]\nclass = Yes"] ;
506 -> 508 ;
509 [label="Sales <= 11.0\ngini = 0.18\nsamples = 10\nvalue = [9, 1]\nclass = No"] ;
505 -> 509 ;
510 [label="Sales <= 5.0\ngini = 0.375\nsamples = 4\nvalue = [3, 1]\nclass = No"] ;
509 -> 510 ;
511 [label="gini = 0.0\nsamples = 1\nvalue = [1, 0]\nclass = No"] ;
510 -> 511 ;
512 [label="gini = 0.444\nsamples = 3\nvalue = [2, 1]\nclass = No"] ;
510 -> 512 ;
513 [label="gini = 0.0\nsamples = 6\nvalue = [6, 0]\nclass = No"] ;
509 -> 513 ;
514 [label="gini = 0.0\nsamples = 10\nvalue = [10, 0]\nclass = No"] ;
504 -> 514 ;
515 [label="Duration <= 54.5\ngini = 0.059\nsamples = 66\nvalue = [64, 2]\nclass = No"] ;
477 -> 515 ;
516 [label="gini = 0.0\nsamples = 35\nvalue = [35, 0]\nclass = No"] ;
515 -> 516 ;
517 [label="Duration <= 56.0\ngini = 0.121\nsamples = 31\nvalue = [29, 2]\nclass = No"] ;
515 -> 517 ;
518 [label="gini = 0.0\nsamples = 1\nvalue = [0, 1]\nclass = Yes"] ;
517 -> 518 ;
519 [label="Duration <= 61.5\ngini = 0.064\nsamples = 30\nvalue = [29, 1]\nclass = No"] ;
517 -> 519 ;
520 [label="Sales <= 27.5\ngini = 0.278\nsamples = 6\nvalue = [5, 1]\nclass = No"] ;
519 -> 520 ;
521 [label="gini = 0.0\nsamples = 5\nvalue = [5, 0]\nclass = No"] ;
520 -> 521 ;
522 [label="gini = 0.0\nsamples = 1\nvalue = [0, 1]\nclass = Yes"] ;
520 -> 522 ;
523 [label="gini = 0.0\nsamples = 24\nvalue = [24, 0]\nclass = No"] ;
519 -> 523 ;
524 [label="Sales <= 16.5\ngini = 0.5\nsamples = 2\nvalue = [1, 1]\nclass = No"] ;
476 -> 524 ;
525 [label="gini = 0.0\nsamples = 1\nvalue = [0, 1]\nclass = Yes"] ;
524 -> 525 ;
526 [label="gini = 0.0\nsamples = 1\nvalue = [1, 0]\nclass = No"] ;
524 -> 526 ;
527 [label="Duration <= 35.5\ngini = 0.231\nsamples = 353\nvalue = [306, 47]\nclass = No"] ;
413 -> 527 ;
528 [label="Sales <= 20.5\ngini = 0.165\nsamples = 242\nvalue = [220, 22]\nclass = No"] ;
527 -> 528 ;
529 [label="Channel <= 0.5\ngini = 0.06\nsamples = 130\nvalue = [126, 4]\nclass = No"] ;
528 -> 529 ;
530 [label="gini = 0.0\nsamples = 1\nvalue = [0, 1]\nclass = Yes"] ;
529 -> 530 ;
531 [label="Age <= 25.5\ngini = 0.045\nsamples = 129\nvalue = [126, 3]\nclass = No"] ;
529 -> 531 ;
532 [label="Sales <= 19.9\ngini = 0.5\nsamples = 2\nvalue = [1, 1]\nclass = No"] ;
531 -> 532 ;
533 [label="gini = 0.0\nsamples = 1\nvalue = [0, 1]\nclass = Yes"] ;
532 -> 533 ;
534 [label="gini = 0.0\nsamples = 1\nvalue = [1, 0]\nclass = No"] ;
532 -> 534 ;
535 [label="Destination <= 1.5\ngini = 0.031\nsamples = 127\nvalue = [125, 2]\nclass = No"] ;
531 -> 535 ;
536 [label="Age <= 38.5\ngini = 0.017\nsamples = 120\nvalue = [119, 1]\nclass = No"] ;
535 -> 536 ;
537 [label="gini = 0.0\nsamples = 96\nvalue = [96, 0]\nclass = No"] ;
536 -> 537 ;
538 [label="Duration <= 3.5\ngini = 0.08\nsamples = 24\nvalue = [23, 1]\nclass = No"] ;
536 -> 538 ;
539 [label="Age <= 44.0\ngini = 0.444\nsamples = 3\nvalue = [2, 1]\nclass = No"] ;
538 -> 539 ;
540 [label="Destination <= 0.5\ngini = 0.5\nsamples = 2\nvalue = [1, 1]\nclass = No"] ;
539 -> 540 ;
541 [label="gini = 0.0\nsamples = 1\nvalue = [0, 1]\nclass = Yes"] ;
540 -> 541 ;
542 [label="gini = 0.0\nsamples = 1\nvalue = [1, 0]\nclass = No"] ;
540 -> 542 ;
543 [label="gini = 0.0\nsamples = 1\nvalue = [1, 0]\nclass = No"] ;
539 -> 543 ;
544 [label="gini = 0.0\nsamples = 21\nvalue = [21, 0]\nclass = No"] ;
538 -> 544 ;
545 [label="Commision <= 8.91\ngini = 0.245\nsamples = 7\nvalue = [6, 1]\nclass = No"] ;
535 -> 545 ;
546 [label="Age <= 50.5\ngini = 0.5\nsamples = 2\nvalue = [1, 1]\nclass = No"] ;
545 -> 546 ;
547 [label="gini = 0.0\nsamples = 1\nvalue = [0, 1]\nclass = Yes"] ;
546 -> 547 ;
548 [label="gini = 0.0\nsamples = 1\nvalue = [1, 0]\nclass = No"] ;
546 -> 548 ;
549 [label="gini = 0.0\nsamples = 5\nvalue = [5, 0]\nclass = No"] ;
545 -> 549 ;
550 [label="Age <= 28.5\ngini = 0.27\nsamples = 112\nvalue = [94, 18]\nclass = No"] ;
528 -> 550 ;
551 [label="Age <= 26.5\ngini = 0.473\nsamples = 13\nvalue = [8, 5]\nclass = No"] ;
550 -> 551 ;
552 [label="Age <= 18.0\ngini = 0.397\nsamples = 11\nvalue = [8, 3]\nclass = No"] ;
551 -> 552 ;
553 [label="gini = 0.0\nsamples = 1\nvalue = [0, 1]\nclass = Yes"] ;
552 -> 553 ;
554 [label="Duration <= 10.5\ngini = 0.32\nsamples = 10\nvalue = [8, 2]\nclass = No"] ;
552 -> 554 ;
555 [label="Destination <= 0.5\ngini = 0.5\nsamples = 4\nvalue = [2, 2]\nclass = No"] ;
554 -> 555 ;
556 [label="Duration <= 7.5\ngini = 0.444\nsamples = 3\nvalue = [1, 2]\nclass = Yes"] ;
555 -> 556 ;
557 [label="gini = 0.0\nsamples = 1\nvalue = [1, 0]\nclass = No"] ;
556 -> 557 ;
558 [label="gini = 0.0\nsamples = 2\nvalue = [0, 2]\nclass = Yes"] ;
556 -> 558 ;
559 [label="gini = 0.0\nsamples = 1\nvalue = [1, 0]\nclass = No"] ;
555 -> 559 ;
560 [label="gini = 0.0\nsamples = 6\nvalue = [6, 0]\nclass = No"] ;
554 -> 560 ;
561 [label="gini = 0.0\nsamples = 2\nvalue = [0, 2]\nclass = Yes"] ;
551 -> 561 ;
562 [label="Sales <= 21.5\ngini = 0.228\nsamples = 99\nvalue = [86, 13]\nclass = No"] ;
550 -> 562 ;
563 [label="Duration <= 14.5\ngini = 0.469\nsamples = 8\nvalue = [5, 3]\nclass = No"] ;
562 -> 563 ;
564 [label="gini = 0.0\nsamples = 3\nvalue = [3, 0]\nclass = No"] ;
563 -> 564 ;
565 [label="Duration <= 28.5\ngini = 0.48\nsamples = 5\nvalue = [2, 3]\nclass = Yes"] ;
563 -> 565 ;
566 [label="gini = 0.0\nsamples = 2\nvalue = [0, 2]\nclass = Yes"] ;
565 -> 566 ;
567 [label="Age <= 35.5\ngini = 0.444\nsamples = 3\nvalue = [2, 1]\nclass = No"] ;
565 -> 567 ;
568 [label="gini = 0.0\nsamples = 1\nvalue = [1, 0]\nclass = No"] ;
567 -> 568 ;
569 [label="gini = 0.5\nsamples = 2\nvalue = [1, 1]\nclass = No"] ;
567 -> 569 ;
570 [label="Duration <= 11.5\ngini = 0.196\nsamples = 91\nvalue = [81, 10]\nclass = No"] ;
562 -> 570 ;
571 [label="Age <= 55.0\ngini = 0.069\nsamples = 28\nvalue = [27, 1]\nclass = No"] ;
570 -> 571 ;
572 [label="gini = 0.0\nsamples = 26\nvalue = [26, 0]\nclass = No"] ;
571 -> 572 ;
573 [label="Duration <= 8.5\ngini = 0.5\nsamples = 2\nvalue = [1, 1]\nclass = No"] ;
571 -> 573 ;
574 [label="gini = 0.0\nsamples = 1\nvalue = [0, 1]\nclass = Yes"] ;
573 -> 574 ;
575 [label="gini = 0.0\nsamples = 1\nvalue = [1, 0]\nclass = No"] ;
573 -> 575 ;
576 [label="Duration <= 12.5\ngini = 0.245\nsamples = 63\nvalue = [54, 9]\nclass = No"] ;
570 -> 576 ;
577 [label="Sales <= 27.0\ngini = 0.444\nsamples = 3\nvalue = [1, 2]\nclass = Yes"] ;
576 -> 577 ;
578 [label="gini = 0.0\nsamples = 1\nvalue = [1, 0]\nclass = No"] ;
577 -> 578 ;
579 [label="gini = 0.0\nsamples = 2\nvalue = [0, 2]\nclass = Yes"] ;
577 -> 579 ;
580 [label="Sales <= 22.5\ngini = 0.206\nsamples = 60\nvalue = [53, 7]\nclass = No"] ;
576 -> 580 ;
581 [label="Age <= 45.5\ngini = 0.444\nsamples = 3\nvalue = [2, 1]\nclass = No"] ;
580 -> 581 ;
582 [label="Duration <= 20.0\ngini = 0.5\nsamples = 2\nvalue = [1, 1]\nclass = No"] ;
581 -> 582 ;
583 [label="gini = 0.0\nsamples = 1\nvalue = [1, 0]\nclass = No"] ;
582 -> 583 ;
584 [label="gini = 0.0\nsamples = 1\nvalue = [0, 1]\nclass = Yes"] ;
582 -> 584 ;
585 [label="gini = 0.0\nsamples = 1\nvalue = [1, 0]\nclass = No"] ;
581 -> 585 ;
586 [label="Age <= 34.5\ngini = 0.188\nsamples = 57\nvalue = [51, 6]\nclass = No"] ;
580 -> 586 ;
587 [label="gini = 0.0\nsamples = 9\nvalue = [9, 0]\nclass = No"] ;
586 -> 587 ;
588 [label="Age <= 35.5\ngini = 0.219\nsamples = 48\nvalue = [42, 6]\nclass = No"] ;
586 -> 588 ;
589 [label="gini = 0.0\nsamples = 1\nvalue = [0, 1]\nclass = Yes"] ;
588 -> 589 ;
590 [label="Commision <= 10.035\ngini = 0.19\nsamples = 47\nvalue = [42, 5]\nclass = No"] ;
588 -> 590 ;
591 [label="Age <= 38.5\ngini = 0.229\nsamples = 38\nvalue = [33, 5]\nclass = No"] ;
590 -> 591 ;
592 [label="Duration <= 30.0\ngini = 0.161\nsamples = 34\nvalue = [31, 3]\nclass = No"] ;
591 -> 592 ;
593 [label="Duration <= 14.5\ngini = 0.121\nsamples = 31\nvalue = [29, 2]\nclass = No"] ;
592 -> 593 ;
594 [label="Sales <= 29.0\ngini = 0.32\nsamples = 5\nvalue = [4, 1]\nclass = No"] ;
593 -> 594 ;
595 [label="gini = 0.0\nsamples = 2\nvalue = [2, 0]\nclass = No"] ;
594 -> 595 ;
596 [label="Destination <= 1.0\ngini = 0.444\nsamples = 3\nvalue = [2, 1]\nclass = No"] ;
594 -> 596 ;
597 [label="Sales <= 30.5\ngini = 0.5\nsamples = 2\nvalue = [1, 1]\nclass = No"] ;
596 -> 597 ;
598 [label="gini = 0.0\nsamples = 1\nvalue = [0, 1]\nclass = Yes"] ;
597 -> 598 ;
599 [label="gini = 0.0\nsamples = 1\nvalue = [1, 0]\nclass = No"] ;
597 -> 599 ;
600 [label="gini = 0.0\nsamples = 1\nvalue = [1, 0]\nclass = No"] ;
596 -> 600 ;
601 [label="Sales <= 25.5\ngini = 0.074\nsamples = 26\nvalue = [25, 1]\nclass = No"] ;
593 -> 601 ;
602 [label="Sales <= 24.935\ngini = 0.198\nsamples = 9\nvalue = [8, 1]\nclass = No"] ;
601 -> 602 ;
603 [label="gini = 0.0\nsamples = 6\nvalue = [6, 0]\nclass = No"] ;
602 -> 603 ;
604 [label="Duration <= 23.0\ngini = 0.444\nsamples = 3\nvalue = [2, 1]\nclass = No"] ;
602 -> 604 ;
605 [label="gini = 0.5\nsamples = 2\nvalue = [1, 1]\nclass = No"] ;
604 -> 605 ;
606 [label="gini = 0.0\nsamples = 1\nvalue = [1, 0]\nclass = No"] ;
604 -> 606 ;
607 [label="gini = 0.0\nsamples = 17\nvalue = [17, 0]\nclass = No"] ;
601 -> 607 ;
608 [label="Duration <= 32.0\ngini = 0.444\nsamples = 3\nvalue = [2, 1]\nclass = No"] ;
592 -> 608 ;
609 [label="gini = 0.0\nsamples = 1\nvalue = [0, 1]\nclass = Yes"] ;
608 -> 609 ;
610 [label="gini = 0.0\nsamples = 2\nvalue = [2, 0]\nclass = No"] ;
608 -> 610 ;
611 [label="Sales <= 25.5\ngini = 0.5\nsamples = 4\nvalue = [2, 2]\nclass = No"] ;
591 -> 611 ;
612 [label="gini = 0.0\nsamples = 1\nvalue = [0, 1]\nclass = Yes"] ;
611 -> 612 ;
613 [label="Channel <= 0.5\ngini = 0.444\nsamples = 3\nvalue = [2, 1]\nclass = No"] ;
611 -> 613 ;
614 [label="Age <= 47.0\ngini = 0.5\nsamples = 2\nvalue = [1, 1]\nclass = No"] ;
613 -> 614 ;
615 [label="gini = 0.0\nsamples = 1\nvalue = [1, 0]\nclass = No"] ;
614 -> 615 ;
616 [label="gini = 0.0\nsamples = 1\nvalue = [0, 1]\nclass = Yes"] ;
614 -> 616 ;
617 [label="gini = 0.0\nsamples = 1\nvalue = [1, 0]\nclass = No"] ;
613 -> 617 ;
618 [label="gini = 0.0\nsamples = 9\nvalue = [9, 0]\nclass = No"] ;
590 -> 618 ;
619 [label="Sales <= 14.85\ngini = 0.349\nsamples = 111\nvalue = [86, 25]\nclass = No"] ;
527 -> 619 ;
620 [label="gini = 0.0\nsamples = 12\nvalue = [12, 0]\nclass = No"] ;
619 -> 620 ;
621 [label="Age <= 39.5\ngini = 0.378\nsamples = 99\nvalue = [74, 25]\nclass = No"] ;
619 -> 621 ;
622 [label="Product Name <= 3.0\ngini = 0.416\nsamples = 78\nvalue = [55, 23]\nclass = No"] ;
621 -> 622 ;
623 [label="Age <= 28.5\ngini = 0.408\nsamples = 77\nvalue = [55, 22]\nclass = No"] ;
622 -> 623 ;
624 [label="Sales <= 30.5\ngini = 0.198\nsamples = 9\nvalue = [8, 1]\nclass = No"] ;
623 -> 624 ;
625 [label="gini = 0.0\nsamples = 8\nvalue = [8, 0]\nclass = No"] ;
624 -> 625 ;
626 [label="gini = 0.0\nsamples = 1\nvalue = [0, 1]\nclass = Yes"] ;
624 -> 626 ;
627 [label="Age <= 29.5\ngini = 0.427\nsamples = 68\nvalue = [47, 21]\nclass = No"] ;
623 -> 627 ;
628 [label="gini = 0.0\nsamples = 2\nvalue = [0, 2]\nclass = Yes"] ;
627 -> 628 ;
629 [label="Age <= 35.5\ngini = 0.41\nsamples = 66\nvalue = [47, 19]\nclass = No"] ;
627 -> 629 ;
630 [label="gini = 0.0\nsamples = 6\nvalue = [6, 0]\nclass = No"] ;
629 -> 630 ;
631 [label="Destination <= 1.5\ngini = 0.433\nsamples = 60\nvalue = [41, 19]\nclass = No"] ;
629 -> 631 ;
632 [label="Sales <= 26.5\ngini = 0.424\nsamples = 59\nvalue = [41, 18]\nclass = No"] ;
631 -> 632 ;
633 [label="Sales <= 22.5\ngini = 0.444\nsamples = 48\nvalue = [32, 16]\nclass = No"] ;
632 -> 633 ;
634 [label="Duration <= 51.5\ngini = 0.388\nsamples = 38\nvalue = [28, 10]\nclass = No"] ;
633 -> 634 ;
635 [label="Duration <= 50.5\ngini = 0.49\nsamples = 14\nvalue = [8, 6]\nclass = No"] ;
634 -> 635 ;
636 [label="Duration <= 48.5\ngini = 0.473\nsamples = 13\nvalue = [8, 5]\nclass = No"] ;
635 -> 636 ;
637 [label="Duration <= 46.5\ngini = 0.496\nsamples = 11\nvalue = [6, 5]\nclass = No"] ;
636 -> 637 ;
638 [label="Sales <= 20.5\ngini = 0.444\nsamples = 9\nvalue = [6, 3]\nclass = No"] ;
637 -> 638 ;
639 [label="Duration <= 44.5\ngini = 0.49\nsamples = 7\nvalue = [4, 3]\nclass = No"] ;
638 -> 639 ;
640 [label="Duration <= 39.5\ngini = 0.5\nsamples = 6\nvalue = [3, 3]\nclass = No"] ;
639 -> 640 ;
641 [label="Duration <= 38.5\ngini = 0.444\nsamples = 3\nvalue = [2, 1]\nclass = No"] ;
640 -> 641 ;
642 [label="gini = 0.5\nsamples = 2\nvalue = [1, 1]\nclass = No"] ;
641 -> 642 ;
643 [label="gini = 0.0\nsamples = 1\nvalue = [1, 0]\nclass = No"] ;
641 -> 643 ;
644 [label="Duration <= 41.5\ngini = 0.444\nsamples = 3\nvalue = [1, 2]\nclass = Yes"] ;
640 -> 644 ;
645 [label="gini = 0.0\nsamples = 1\nvalue = [0, 1]\nclass = Yes"] ;
644 -> 645 ;
646 [label="gini = 0.5\nsamples = 2\nvalue = [1, 1]\nclass = No"] ;
644 -> 646 ;
647 [label="gini = 0.0\nsamples = 1\nvalue = [1, 0]\nclass = No"] ;
639 -> 647 ;
648 [label="gini = 0.0\nsamples = 2\nvalue = [2, 0]\nclass = No"] ;
638 -> 648 ;
649 [label="gini = 0.0\nsamples = 2\nvalue = [0, 2]\nclass = Yes"] ;
637 -> 649 ;
650 [label="gini = 0.0\nsamples = 2\nvalue = [2, 0]\nclass = No"] ;
636 -> 650 ;
651 [label="gini = 0.0\nsamples = 1\nvalue = [0, 1]\nclass = Yes"] ;
635 -> 651 ;
652 [label="Age <= 37.0\ngini = 0.278\nsamples = 24\nvalue = [20, 4]\nclass = No"] ;
634 -> 652 ;
653 [label="Duration <= 63.0\ngini = 0.227\nsamples = 23\nvalue = [20, 3]\nclass = No"] ;
652 -> 653 ;
654 [label="gini = 0.0\nsamples = 6\nvalue = [6, 0]\nclass = No"] ;
653 -> 654 ;
655 [label="Duration <= 68.0\ngini = 0.291\nsamples = 17\nvalue = [14, 3]\nclass = No"] ;
653 -> 655 ;
656 [label="gini = 0.0\nsamples = 1\nvalue = [0, 1]\nclass = Yes"] ;
655 -> 656 ;
657 [label="Duration <= 88.5\ngini = 0.219\nsamples = 16\nvalue = [14, 2]\nclass = No"] ;
655 -> 657 ;
658 [label="gini = 0.0\nsamples = 4\nvalue = [4, 0]\nclass = No"] ;
657 -> 658 ;
659 [label="Duration <= 95.5\ngini = 0.278\nsamples = 12\nvalue = [10, 2]\nclass = No"] ;
657 -> 659 ;
660 [label="gini = 0.5\nsamples = 2\nvalue = [1, 1]\nclass = No"] ;
659 -> 660 ;
661 [label="Duration <= 136.5\ngini = 0.18\nsamples = 10\nvalue = [9, 1]\nclass = No"] ;
659 -> 661 ;
662 [label="gini = 0.0\nsamples = 5\nvalue = [5, 0]\nclass = No"] ;
661 -> 662 ;
663 [label="Sales <= 20.5\ngini = 0.32\nsamples = 5\nvalue = [4, 1]\nclass = No"] ;
661 -> 663 ;
664 [label="gini = 0.375\nsamples = 4\nvalue = [3, 1]\nclass = No"] ;
663 -> 664 ;
665 [label="gini = 0.0\nsamples = 1\nvalue = [1, 0]\nclass = No"] ;
663 -> 665 ;
666 [label="gini = 0.0\nsamples = 1\nvalue = [0, 1]\nclass = Yes"] ;
652 -> 666 ;
667 [label="Duration <= 58.5\ngini = 0.48\nsamples = 10\nvalue = [4, 6]\nclass = Yes"] ;
633 -> 667 ;
668 [label="Duration <= 41.0\ngini = 0.48\nsamples = 5\nvalue = [3, 2]\nclass = No"] ;
667 -> 668 ;
669 [label="gini = 0.0\nsamples = 1\nvalue = [0, 1]\nclass = Yes"] ;
668 -> 669 ;
670 [label="Sales <= 24.5\ngini = 0.375\nsamples = 4\nvalue = [3, 1]\nclass = No"] ;
668 -> 670 ;
671 [label="Sales <= 23.5\ngini = 0.5\nsamples = 2\nvalue = [1, 1]\nclass = No"] ;
670 -> 671 ;
672 [label="gini = 0.0\nsamples = 1\nvalue = [1, 0]\nclass = No"] ;
671 -> 672 ;
673 [label="gini = 0.0\nsamples = 1\nvalue = [0, 1]\nclass = Yes"] ;
671 -> 673 ;
674 [label="gini = 0.0\nsamples = 2\nvalue = [2, 0]\nclass = No"] ;
670 -> 674 ;
675 [label="Duration <= 133.0\ngini = 0.32\nsamples = 5\nvalue = [1, 4]\nclass = Yes"] ;
667 -> 675 ;
676 [label="gini = 0.0\nsamples = 4\nvalue = [0, 4]\nclass = Yes"] ;
675 -> 676 ;
677 [label="gini = 0.0\nsamples = 1\nvalue = [1, 0]\nclass = No"] ;
675 -> 677 ;
678 [label="Duration <= 72.0\ngini = 0.298\nsamples = 11\nvalue = [9, 2]\nclass = No"] ;
632 -> 678 ;
679 [label="gini = 0.0\nsamples = 5\nvalue = [5, 0]\nclass = No"] ;
678 -> 679 ;
680 [label="Duration <= 80.5\ngini = 0.444\nsamples = 6\nvalue = [4, 2]\nclass = No"] ;
678 -> 680 ;
681 [label="gini = 0.0\nsamples = 1\nvalue = [0, 1]\nclass = Yes"] ;
680 -> 681 ;
682 [label="Sales <= 28.5\ngini = 0.32\nsamples = 5\nvalue = [4, 1]\nclass = No"] ;
680 -> 682 ;
683 [label="Duration <= 111.0\ngini = 0.5\nsamples = 2\nvalue = [1, 1]\nclass = No"] ;
682 -> 683 ;
684 [label="gini = 0.0\nsamples = 1\nvalue = [1, 0]\nclass = No"] ;
683 -> 684 ;
685 [label="gini = 0.0\nsamples = 1\nvalue = [0, 1]\nclass = Yes"] ;
683 -> 685 ;
686 [label="gini = 0.0\nsamples = 3\nvalue = [3, 0]\nclass = No"] ;
682 -> 686 ;
687 [label="gini = 0.0\nsamples = 1\nvalue = [0, 1]\nclass = Yes"] ;
631 -> 687 ;
688 [label="gini = 0.0\nsamples = 1\nvalue = [0, 1]\nclass = Yes"] ;
622 -> 688 ;
689 [label="Destination <= 1.5\ngini = 0.172\nsamples = 21\nvalue = [19, 2]\nclass = No"] ;
621 -> 689 ;
690 [label="Duration <= 36.5\ngini = 0.095\nsamples = 20\nvalue = [19, 1]\nclass = No"] ;
689 -> 690 ;
691 [label="gini = 0.0\nsamples = 1\nvalue = [0, 1]\nclass = Yes"] ;
690 -> 691 ;
692 [label="gini = 0.0\nsamples = 19\nvalue = [19, 0]\nclass = No"] ;
690 -> 692 ;
693 [label="gini = 0.0\nsamples = 1\nvalue = [0, 1]\nclass = Yes"] ;
689 -> 693 ;
694 [label="Product Name <= 1.5\ngini = 0.381\nsamples = 647\nvalue = [481, 166]\nclass = No"] ;
412 -> 694 ;
695 [label="Agency_Code <= 2.5\ngini = 0.199\nsamples = 205\nvalue = [182, 23]\nclass = No"] ;
694 -> 695 ;
696 [label="Sales <= 37.5\ngini = 0.12\nsamples = 140\nvalue = [131, 9]\nclass = No"] ;
695 -> 696 ;
697 [label="Sales <= 36.5\ngini = 0.291\nsamples = 17\nvalue = [14, 3]\nclass = No"] ;
696 -> 697 ;
698 [label="Duration <= 6.5\ngini = 0.133\nsamples = 14\nvalue = [13, 1]\nclass = No"] ;
697 -> 698 ;
699 [label="gini = 0.5\nsamples = 2\nvalue = [1, 1]\nclass = No"] ;
698 -> 699 ;
700 [label="gini = 0.0\nsamples = 12\nvalue = [12, 0]\nclass = No"] ;
698 -> 700 ;
701 [label="Duration <= 27.5\ngini = 0.444\nsamples = 3\nvalue = [1, 2]\nclass = Yes"] ;
697 -> 701 ;
702 [label="gini = 0.0\nsamples = 1\nvalue = [0, 1]\nclass = Yes"] ;
701 -> 702 ;
703 [label="Destination <= 1.0\ngini = 0.5\nsamples = 2\nvalue = [1, 1]\nclass = No"] ;
701 -> 703 ;
704 [label="gini = 0.0\nsamples = 1\nvalue = [1, 0]\nclass = No"] ;
703 -> 704 ;
705 [label="gini = 0.0\nsamples = 1\nvalue = [0, 1]\nclass = Yes"] ;
703 -> 705 ;
706 [label="Sales <= 60.5\ngini = 0.093\nsamples = 123\nvalue = [117, 6]\nclass = No"] ;
696 -> 706 ;
707 [label="Sales <= 56.5\ngini = 0.146\nsamples = 63\nvalue = [58, 5]\nclass = No"] ;
706 -> 707 ;
708 [label="Duration <= 126.0\ngini = 0.077\nsamples = 50\nvalue = [48, 2]\nclass = No"] ;
707 -> 708 ;
709 [label="Duration <= 11.5\ngini = 0.043\nsamples = 46\nvalue = [45, 1]\nclass = No"] ;
708 -> 709 ;
710 [label="Duration <= 7.0\ngini = 0.219\nsamples = 8\nvalue = [7, 1]\nclass = No"] ;
709 -> 710 ;
711 [label="gini = 0.0\nsamples = 7\nvalue = [7, 0]\nclass = No"] ;
710 -> 711 ;
712 [label="gini = 0.0\nsamples = 1\nvalue = [0, 1]\nclass = Yes"] ;
710 -> 712 ;
713 [label="gini = 0.0\nsamples = 38\nvalue = [38, 0]\nclass = No"] ;
709 -> 713 ;
714 [label="Age <= 35.5\ngini = 0.375\nsamples = 4\nvalue = [3, 1]\nclass = No"] ;
708 -> 714 ;
715 [label="gini = 0.0\nsamples = 1\nvalue = [0, 1]\nclass = Yes"] ;
714 -> 715 ;
716 [label="gini = 0.0\nsamples = 3\nvalue = [3, 0]\nclass = No"] ;
714 -> 716 ;
717 [label="Duration <= 15.5\ngini = 0.355\nsamples = 13\nvalue = [10, 3]\nclass = No"] ;
707 -> 717 ;
718 [label="gini = 0.0\nsamples = 3\nvalue = [3, 0]\nclass = No"] ;
717 -> 718 ;
719 [label="Duration <= 41.0\ngini = 0.42\nsamples = 10\nvalue = [7, 3]\nclass = No"] ;
717 -> 719 ;
720 [label="Product Name <= 0.5\ngini = 0.444\nsamples = 3\nvalue = [1, 2]\nclass = Yes"] ;
719 -> 720 ;
721 [label="gini = 0.0\nsamples = 1\nvalue = [1, 0]\nclass = No"] ;
720 -> 721 ;
722 [label="gini = 0.0\nsamples = 2\nvalue = [0, 2]\nclass = Yes"] ;
720 -> 722 ;
723 [label="Sales <= 57.5\ngini = 0.245\nsamples = 7\nvalue = [6, 1]\nclass = No"] ;
719 -> 723 ;
724 [label="Duration <= 103.0\ngini = 0.5\nsamples = 2\nvalue = [1, 1]\nclass = No"] ;
723 -> 724 ;
725 [label="gini = 0.0\nsamples = 1\nvalue = [0, 1]\nclass = Yes"] ;
724 -> 725 ;
726 [label="gini = 0.0\nsamples = 1\nvalue = [1, 0]\nclass = No"] ;
724 -> 726 ;
727 [label="gini = 0.0\nsamples = 5\nvalue = [5, 0]\nclass = No"] ;
723 -> 727 ;
728 [label="Age <= 33.0\ngini = 0.033\nsamples = 60\nvalue = [59, 1]\nclass = No"] ;
706 -> 728 ;
729 [label="Age <= 31.0\ngini = 0.18\nsamples = 10\nvalue = [9, 1]\nclass = No"] ;
728 -> 729 ;
730 [label="gini = 0.0\nsamples = 9\nvalue = [9, 0]\nclass = No"] ;
729 -> 730 ;
731 [label="gini = 0.0\nsamples = 1\nvalue = [0, 1]\nclass = Yes"] ;
729 -> 731 ;
732 [label="gini = 0.0\nsamples = 50\nvalue = [50, 0]\nclass = No"] ;
728 -> 732 ;
733 [label="Duration <= 10.0\ngini = 0.338\nsamples = 65\nvalue = [51, 14]\nclass = No"] ;
695 -> 733 ;
734 [label="Age <= 45.5\ngini = 0.48\nsamples = 5\nvalue = [2, 3]\nclass = Yes"] ;
733 -> 734 ;
735 [label="gini = 0.0\nsamples = 2\nvalue = [0, 2]\nclass = Yes"] ;
734 -> 735 ;
736 [label="Duration <= 7.5\ngini = 0.444\nsamples = 3\nvalue = [2, 1]\nclass = No"] ;
734 -> 736 ;
737 [label="gini = 0.0\nsamples = 1\nvalue = [0, 1]\nclass = Yes"] ;
736 -> 737 ;
738 [label="gini = 0.0\nsamples = 2\nvalue = [2, 0]\nclass = No"] ;
736 -> 738 ;
739 [label="Sales <= 89.5\ngini = 0.299\nsamples = 60\nvalue = [49, 11]\nclass = No"] ;
733 -> 739 ;
740 [label="Age <= 20.0\ngini = 0.237\nsamples = 51\nvalue = [44, 7]\nclass = No"] ;
739 -> 740 ;
741 [label="gini = 0.0\nsamples = 1\nvalue = [0, 1]\nclass = Yes"] ;
740 -> 741 ;
742 [label="Duration <= 28.5\ngini = 0.211\nsamples = 50\nvalue = [44, 6]\nclass = No"] ;
740 -> 742 ;
743 [label="gini = 0.0\nsamples = 17\nvalue = [17, 0]\nclass = No"] ;
742 -> 743 ;
744 [label="Duration <= 31.0\ngini = 0.298\nsamples = 33\nvalue = [27, 6]\nclass = No"] ;
742 -> 744 ;
745 [label="gini = 0.0\nsamples = 1\nvalue = [0, 1]\nclass = Yes"] ;
744 -> 745 ;
746 [label="Age <= 29.5\ngini = 0.264\nsamples = 32\nvalue = [27, 5]\nclass = No"] ;
744 -> 746 ;
747 [label="Commision <= 14.7\ngini = 0.469\nsamples = 8\nvalue = [5, 3]\nclass = No"] ;
746 -> 747 ;
748 [label="Duration <= 60.0\ngini = 0.48\nsamples = 5\nvalue = [2, 3]\nclass = Yes"] ;
747 -> 748 ;
749 [label="gini = 0.0\nsamples = 2\nvalue = [0, 2]\nclass = Yes"] ;
748 -> 749 ;
750 [label="Age <= 23.5\ngini = 0.444\nsamples = 3\nvalue = [2, 1]\nclass = No"] ;
748 -> 750 ;
751 [label="gini = 0.0\nsamples = 1\nvalue = [1, 0]\nclass = No"] ;
750 -> 751 ;
752 [label="Duration <= 99.0\ngini = 0.5\nsamples = 2\nvalue = [1, 1]\nclass = No"] ;
750 -> 752 ;
753 [label="gini = 0.0\nsamples = 1\nvalue = [0, 1]\nclass = Yes"] ;
752 -> 753 ;
754 [label="gini = 0.0\nsamples = 1\nvalue = [1, 0]\nclass = No"] ;
752 -> 754 ;
755 [label="gini = 0.0\nsamples = 3\nvalue = [3, 0]\nclass = No"] ;
747 -> 755 ;
756 [label="Age <= 49.5\ngini = 0.153\nsamples = 24\nvalue = [22, 2]\nclass = No"] ;
746 -> 756 ;
757 [label="gini = 0.0\nsamples = 17\nvalue = [17, 0]\nclass = No"] ;
756 -> 757 ;
758 [label="Age <= 53.5\ngini = 0.408\nsamples = 7\nvalue = [5, 2]\nclass = No"] ;
756 -> 758 ;
759 [label="Commision <= 11.9\ngini = 0.444\nsamples = 3\nvalue = [1, 2]\nclass = Yes"] ;
758 -> 759 ;
760 [label="gini = 0.0\nsamples = 1\nvalue = [1, 0]\nclass = No"] ;
759 -> 760 ;
761 [label="gini = 0.0\nsamples = 2\nvalue = [0, 2]\nclass = Yes"] ;
759 -> 761 ;
762 [label="gini = 0.0\nsamples = 4\nvalue = [4, 0]\nclass = No"] ;
758 -> 762 ;
763 [label="Destination <= 1.5\ngini = 0.494\nsamples = 9\nvalue = [5, 4]\nclass = No"] ;
739 -> 763 ;
764 [label="Age <= 34.5\ngini = 0.444\nsamples = 6\nvalue = [2, 4]\nclass = Yes"] ;
763 -> 764 ;
765 [label="gini = 0.0\nsamples = 1\nvalue = [1, 0]\nclass = No"] ;
764 -> 765 ;
766 [label="Duration <= 20.0\ngini = 0.32\nsamples = 5\nvalue = [1, 4]\nclass = Yes"] ;
764 -> 766 ;
767 [label="gini = 0.0\nsamples = 1\nvalue = [1, 0]\nclass = No"] ;
766 -> 767 ;
768 [label="gini = 0.0\nsamples = 4\nvalue = [0, 4]\nclass = Yes"] ;
766 -> 768 ;
769 [label="gini = 0.0\nsamples = 3\nvalue = [3, 0]\nclass = No"] ;
763 -> 769 ;
770 [label="Product Name <= 2.5\ngini = 0.438\nsamples = 442\nvalue = [299, 143]\nclass = No"] ;
694 -> 770 ;
771 [label="Channel <= 0.5\ngini = 0.42\nsamples = 407\nvalue = [285, 122]\nclass = No"] ;
770 -> 771 ;
772 [label="Sales <= 91.5\ngini = 0.245\nsamples = 7\nvalue = [1, 6]\nclass = Yes"] ;
771 -> 772 ;
773 [label="gini = 0.0\nsamples = 4\nvalue = [0, 4]\nclass = Yes"] ;
772 -> 773 ;
774 [label="Age <= 27.5\ngini = 0.444\nsamples = 3\nvalue = [1, 2]\nclass = Yes"] ;
772 -> 774 ;
775 [label="gini = 0.0\nsamples = 1\nvalue = [0, 1]\nclass = Yes"] ;
774 -> 775 ;
776 [label="Age <= 36.0\ngini = 0.5\nsamples = 2\nvalue = [1, 1]\nclass = No"] ;
774 -> 776 ;
777 [label="gini = 0.0\nsamples = 1\nvalue = [1, 0]\nclass = No"] ;
776 -> 777 ;
778 [label="gini = 0.0\nsamples = 1\nvalue = [0, 1]\nclass = Yes"] ;
776 -> 778 ;
779 [label="Age <= 33.5\ngini = 0.412\nsamples = 400\nvalue = [284, 116]\nclass = No"] ;
771 -> 779 ;
780 [label="Sales <= 38.0\ngini = 0.478\nsamples = 91\nvalue = [55, 36]\nclass = No"] ;
779 -> 780 ;
781 [label="gini = 0.0\nsamples = 4\nvalue = [4, 0]\nclass = No"] ;
780 -> 781 ;
782 [label="Destination <= 1.5\ngini = 0.485\nsamples = 87\nvalue = [51, 36]\nclass = No"] ;
780 -> 782 ;
783 [label="Duration <= 10.5\ngini = 0.466\nsamples = 65\nvalue = [41, 24]\nclass = No"] ;
782 -> 783 ;
784 [label="Destination <= 0.5\ngini = 0.497\nsamples = 13\nvalue = [6, 7]\nclass = Yes"] ;
783 -> 784 ;
785 [label="Age <= 31.5\ngini = 0.375\nsamples = 8\nvalue = [2, 6]\nclass = Yes"] ;
784 -> 785 ;
786 [label="Age <= 23.5\ngini = 0.444\nsamples = 6\nvalue = [2, 4]\nclass = Yes"] ;
785 -> 786 ;
787 [label="gini = 0.0\nsamples = 1\nvalue = [0, 1]\nclass = Yes"] ;
786 -> 787 ;
788 [label="Age <= 28.5\ngini = 0.48\nsamples = 5\nvalue = [2, 3]\nclass = Yes"] ;
786 -> 788 ;
789 [label="gini = 0.0\nsamples = 1\nvalue = [1, 0]\nclass = No"] ;
788 -> 789 ;
790 [label="Sales <= 44.55\ngini = 0.375\nsamples = 4\nvalue = [1, 3]\nclass = Yes"] ;
788 -> 790 ;
791 [label="Duration <= 8.0\ngini = 0.5\nsamples = 2\nvalue = [1, 1]\nclass = No"] ;
790 -> 791 ;
792 [label="gini = 0.0\nsamples = 1\nvalue = [0, 1]\nclass = Yes"] ;
791 -> 792 ;
793 [label="gini = 0.0\nsamples = 1\nvalue = [1, 0]\nclass = No"] ;
791 -> 793 ;
794 [label="gini = 0.0\nsamples = 2\nvalue = [0, 2]\nclass = Yes"] ;
790 -> 794 ;
795 [label="gini = 0.0\nsamples = 2\nvalue = [0, 2]\nclass = Yes"] ;
785 -> 795 ;
796 [label="Age <= 27.0\ngini = 0.32\nsamples = 5\nvalue = [4, 1]\nclass = No"] ;
784 -> 796 ;
797 [label="gini = 0.0\nsamples = 1\nvalue = [0, 1]\nclass = Yes"] ;
796 -> 797 ;
798 [label="gini = 0.0\nsamples = 4\nvalue = [4, 0]\nclass = No"] ;
796 -> 798 ;
799 [label="Destination <= 0.5\ngini = 0.44\nsamples = 52\nvalue = [35, 17]\nclass = No"] ;
783 -> 799 ;
800 [label="Sales <= 47.5\ngini = 0.245\nsamples = 14\nvalue = [12, 2]\nclass = No"] ;
799 -> 800 ;
801 [label="Commision <= 11.88\ngini = 0.444\nsamples = 6\nvalue = [4, 2]\nclass = No"] ;
800 -> 801 ;
802 [label="gini = 0.0\nsamples = 1\nvalue = [0, 1]\nclass = Yes"] ;
801 -> 802 ;
803 [label="Duration <= 22.5\ngini = 0.32\nsamples = 5\nvalue = [4, 1]\nclass = No"] ;
801 -> 803 ;
804 [label="gini = 0.0\nsamples = 3\nvalue = [3, 0]\nclass = No"] ;
803 -> 804 ;
805 [label="Duration <= 82.5\ngini = 0.5\nsamples = 2\nvalue = [1, 1]\nclass = No"] ;
803 -> 805 ;
806 [label="gini = 0.0\nsamples = 1\nvalue = [0, 1]\nclass = Yes"] ;
805 -> 806 ;
807 [label="gini = 0.0\nsamples = 1\nvalue = [1, 0]\nclass = No"] ;
805 -> 807 ;
808 [label="gini = 0.0\nsamples = 8\nvalue = [8, 0]\nclass = No"] ;
800 -> 808 ;
809 [label="Commision <= 38.61\ngini = 0.478\nsamples = 38\nvalue = [23, 15]\nclass = No"] ;
799 -> 809 ;
810 [label="Age <= 30.5\ngini = 0.5\nsamples = 18\nvalue = [9, 9]\nclass = No"] ;
809 -> 810 ;
811 [label="Age <= 24.5\ngini = 0.444\nsamples = 12\nvalue = [4, 8]\nclass = Yes"] ;
810 -> 811 ;
812 [label="gini = 0.0\nsamples = 2\nvalue = [2, 0]\nclass = No"] ;
811 -> 812 ;
813 [label="Sales <= 44.55\ngini = 0.32\nsamples = 10\nvalue = [2, 8]\nclass = Yes"] ;
811 -> 813 ;
814 [label="Age <= 29.5\ngini = 0.5\nsamples = 2\nvalue = [1, 1]\nclass = No"] ;
813 -> 814 ;
815 [label="gini = 0.0\nsamples = 1\nvalue = [1, 0]\nclass = No"] ;
814 -> 815 ;
816 [label="gini = 0.0\nsamples = 1\nvalue = [0, 1]\nclass = Yes"] ;
814 -> 816 ;
817 [label="Sales <= 108.0\ngini = 0.219\nsamples = 8\nvalue = [1, 7]\nclass = Yes"] ;
813 -> 817 ;
818 [label="gini = 0.0\nsamples = 5\nvalue = [0, 5]\nclass = Yes"] ;
817 -> 818 ;
819 [label="Agency_Code <= 1.5\ngini = 0.444\nsamples = 3\nvalue = [1, 2]\nclass = Yes"] ;
817 -> 819 ;
820 [label="gini = 0.0\nsamples = 1\nvalue = [0, 1]\nclass = Yes"] ;
819 -> 820 ;
821 [label="Duration <= 97.5\ngini = 0.5\nsamples = 2\nvalue = [1, 1]\nclass = No"] ;
819 -> 821 ;
822 [label="gini = 0.0\nsamples = 1\nvalue = [1, 0]\nclass = No"] ;
821 -> 822 ;
823 [label="gini = 0.0\nsamples = 1\nvalue = [0, 1]\nclass = Yes"] ;
821 -> 823 ;
824 [label="Duration <= 50.5\ngini = 0.278\nsamples = 6\nvalue = [5, 1]\nclass = No"] ;
810 -> 824 ;
825 [label="gini = 0.0\nsamples = 4\nvalue = [4, 0]\nclass = No"] ;
824 -> 825 ;
826 [label="Duration <= 72.5\ngini = 0.5\nsamples = 2\nvalue = [1, 1]\nclass = No"] ;
824 -> 826 ;
827 [label="gini = 0.0\nsamples = 1\nvalue = [0, 1]\nclass = Yes"] ;
826 -> 827 ;
828 [label="gini = 0.0\nsamples = 1\nvalue = [1, 0]\nclass = No"] ;
826 -> 828 ;
829 [label="Age <= 29.5\ngini = 0.42\nsamples = 20\nvalue = [14, 6]\nclass = No"] ;
809 -> 829 ;
830 [label="Duration <= 24.0\ngini = 0.219\nsamples = 8\nvalue = [7, 1]\nclass = No"] ;
829 -> 830 ;
831 [label="gini = 0.0\nsamples = 1\nvalue = [0, 1]\nclass = Yes"] ;
830 -> 831 ;
832 [label="gini = 0.0\nsamples = 7\nvalue = [7, 0]\nclass = No"] ;
830 -> 832 ;
833 [label="Duration <= 133.0\ngini = 0.486\nsamples = 12\nvalue = [7, 5]\nclass = No"] ;
829 -> 833 ;
834 [label="Duration <= 24.5\ngini = 0.5\nsamples = 10\nvalue = [5, 5]\nclass = No"] ;
833 -> 834 ;
835 [label="Commision <= 42.334\ngini = 0.375\nsamples = 4\nvalue = [3, 1]\nclass = No"] ;
834 -> 835 ;
836 [label="gini = 0.0\nsamples = 1\nvalue = [0, 1]\nclass = Yes"] ;
835 -> 836 ;
837 [label="gini = 0.0\nsamples = 3\nvalue = [3, 0]\nclass = No"] ;
835 -> 837 ;
838 [label="Duration <= 75.5\ngini = 0.444\nsamples = 6\nvalue = [2, 4]\nclass = Yes"] ;
834 -> 838 ;
839 [label="gini = 0.0\nsamples = 3\nvalue = [0, 3]\nclass = Yes"] ;
838 -> 839 ;
840 [label="Duration <= 110.5\ngini = 0.444\nsamples = 3\nvalue = [2, 1]\nclass = No"] ;
838 -> 840 ;
841 [label="gini = 0.0\nsamples = 2\nvalue = [2, 0]\nclass = No"] ;
840 -> 841 ;
842 [label="gini = 0.0\nsamples = 1\nvalue = [0, 1]\nclass = Yes"] ;
840 -> 842 ;
843 [label="gini = 0.0\nsamples = 2\nvalue = [2, 0]\nclass = No"] ;
833 -> 843 ;
844 [label="Sales <= 99.0\ngini = 0.496\nsamples = 22\nvalue = [10, 12]\nclass = Yes"] ;
782 -> 844 ;
845 [label="Duration <= 37.0\ngini = 0.469\nsamples = 16\nvalue = [10, 6]\nclass = No"] ;
844 -> 845 ;
846 [label="Duration <= 13.5\ngini = 0.245\nsamples = 7\nvalue = [6, 1]\nclass = No"] ;
845 -> 846 ;
847 [label="Sales <= 54.45\ngini = 0.444\nsamples = 3\nvalue = [2, 1]\nclass = No"] ;
846 -> 847 ;
848 [label="gini = 0.0\nsamples = 2\nvalue = [2, 0]\nclass = No"] ;
847 -> 848 ;
849 [label="gini = 0.0\nsamples = 1\nvalue = [0, 1]\nclass = Yes"] ;
847 -> 849 ;
850 [label="gini = 0.0\nsamples = 4\nvalue = [4, 0]\nclass = No"] ;
846 -> 850 ;
851 [label="Sales <= 79.2\ngini = 0.494\nsamples = 9\nvalue = [4, 5]\nclass = Yes"] ;
845 -> 851 ;
852 [label="Duration <= 115.0\ngini = 0.408\nsamples = 7\nvalue = [2, 5]\nclass = Yes"] ;
851 -> 852 ;
853 [label="Duration <= 57.0\ngini = 0.278\nsamples = 6\nvalue = [1, 5]\nclass = Yes"] ;
852 -> 853 ;
854 [label="Duration <= 55.5\ngini = 0.444\nsamples = 3\nvalue = [1, 2]\nclass = Yes"] ;
853 -> 854 ;
855 [label="gini = 0.0\nsamples = 2\nvalue = [0, 2]\nclass = Yes"] ;
854 -> 855 ;
856 [label="gini = 0.0\nsamples = 1\nvalue = [1, 0]\nclass = No"] ;
854 -> 856 ;
857 [label="gini = 0.0\nsamples = 3\nvalue = [0, 3]\nclass = Yes"] ;
853 -> 857 ;
858 [label="gini = 0.0\nsamples = 1\nvalue = [1, 0]\nclass = No"] ;
852 -> 858 ;
859 [label="gini = 0.0\nsamples = 2\nvalue = [2, 0]\nclass = No"] ;
851 -> 859 ;
860 [label="gini = 0.0\nsamples = 6\nvalue = [0, 6]\nclass = Yes"] ;
844 -> 860 ;
861 [label="Duration <= 134.0\ngini = 0.384\nsamples = 309\nvalue = [229, 80]\nclass = No"] ;
779 -> 861 ;
862 [label="Duration <= 29.5\ngini = 0.395\nsamples = 288\nvalue = [210, 78]\nclass = No"] ;
861 -> 862 ;
863 [label="Sales <= 43.5\ngini = 0.337\nsamples = 149\nvalue = [117, 32]\nclass = No"] ;
862 -> 863 ;
864 [label="Age <= 56.0\ngini = 0.198\nsamples = 45\nvalue = [40, 5]\nclass = No"] ;
863 -> 864 ;
865 [label="Duration <= 18.0\ngini = 0.169\nsamples = 43\nvalue = [39, 4]\nclass = No"] ;
864 -> 865 ;
866 [label="Sales <= 39.3\ngini = 0.067\nsamples = 29\nvalue = [28, 1]\nclass = No"] ;
865 -> 866 ;
867 [label="Sales <= 38.0\ngini = 0.165\nsamples = 11\nvalue = [10, 1]\nclass = No"] ;
866 -> 867 ;
868 [label="gini = 0.0\nsamples = 9\nvalue = [9, 0]\nclass = No"] ;
867 -> 868 ;
869 [label="Duration <= 11.5\ngini = 0.5\nsamples = 2\nvalue = [1, 1]\nclass = No"] ;
867 -> 869 ;
870 [label="gini = 0.0\nsamples = 1\nvalue = [0, 1]\nclass = Yes"] ;
869 -> 870 ;
871 [label="gini = 0.0\nsamples = 1\nvalue = [1, 0]\nclass = No"] ;
869 -> 871 ;
872 [label="gini = 0.0\nsamples = 18\nvalue = [18, 0]\nclass = No"] ;
866 -> 872 ;
873 [label="Age <= 47.5\ngini = 0.337\nsamples = 14\nvalue = [11, 3]\nclass = No"] ;
865 -> 873 ;
874 [label="Sales <= 36.5\ngini = 0.26\nsamples = 13\nvalue = [11, 2]\nclass = No"] ;
873 -> 874 ;
875 [label="Age <= 40.5\ngini = 0.5\nsamples = 4\nvalue = [2, 2]\nclass = No"] ;
874 -> 875 ;
876 [label="Duration <= 22.5\ngini = 0.444\nsamples = 3\nvalue = [1, 2]\nclass = Yes"] ;
875 -> 876 ;
877 [label="gini = 0.0\nsamples = 1\nvalue = [0, 1]\nclass = Yes"] ;
876 -> 877 ;
878 [label="Duration <= 25.5\ngini = 0.5\nsamples = 2\nvalue = [1, 1]\nclass = No"] ;
876 -> 878 ;
879 [label="gini = 0.0\nsamples = 1\nvalue = [1, 0]\nclass = No"] ;
878 -> 879 ;
880 [label="gini = 0.0\nsamples = 1\nvalue = [0, 1]\nclass = Yes"] ;
878 -> 880 ;
881 [label="gini = 0.0\nsamples = 1\nvalue = [1, 0]\nclass = No"] ;
875 -> 881 ;
882 [label="gini = 0.0\nsamples = 9\nvalue = [9, 0]\nclass = No"] ;
874 -> 882 ;
883 [label="gini = 0.0\nsamples = 1\nvalue = [0, 1]\nclass = Yes"] ;
873 -> 883 ;
884 [label="Duration <= 9.5\ngini = 0.5\nsamples = 2\nvalue = [1, 1]\nclass = No"] ;
864 -> 884 ;
885 [label="gini = 0.0\nsamples = 1\nvalue = [0, 1]\nclass = Yes"] ;
884 -> 885 ;
886 [label="gini = 0.0\nsamples = 1\nvalue = [1, 0]\nclass = No"] ;
884 -> 886 ;
887 [label="Duration <= 26.5\ngini = 0.384\nsamples = 104\nvalue = [77, 27]\nclass = No"] ;
863 -> 887 ;
888 [label="Age <= 35.5\ngini = 0.407\nsamples = 95\nvalue = [68, 27]\nclass = No"] ;
887 -> 888 ;
889 [label="Sales <= 69.15\ngini = 0.48\nsamples = 5\nvalue = [2, 3]\nclass = Yes"] ;
888 -> 889 ;
890 [label="gini = 0.0\nsamples = 2\nvalue = [2, 0]\nclass = No"] ;
889 -> 890 ;
891 [label="gini = 0.0\nsamples = 3\nvalue = [0, 3]\nclass = Yes"] ;
889 -> 891 ;
892 [label="Duration <= 2.5\ngini = 0.391\nsamples = 90\nvalue = [66, 24]\nclass = No"] ;
888 -> 892 ;
893 [label="gini = 0.0\nsamples = 4\nvalue = [4, 0]\nclass = No"] ;
892 -> 893 ;
894 [label="Duration <= 4.0\ngini = 0.402\nsamples = 86\nvalue = [62, 24]\nclass = No"] ;
892 -> 894 ;
895 [label="gini = 0.0\nsamples = 1\nvalue = [0, 1]\nclass = Yes"] ;
894 -> 895 ;
896 [label="Destination <= 0.5\ngini = 0.395\nsamples = 85\nvalue = [62, 23]\nclass = No"] ;
894 -> 896 ;
897 [label="Duration <= 24.5\ngini = 0.435\nsamples = 50\nvalue = [34, 16]\nclass = No"] ;
896 -> 897 ;
898 [label="Duration <= 20.5\ngini = 0.405\nsamples = 46\nvalue = [33, 13]\nclass = No"] ;
897 -> 898 ;
899 [label="Commision <= 39.364\ngini = 0.433\nsamples = 41\nvalue = [28, 13]\nclass = No"] ;
898 -> 899 ;
900 [label="Sales <= 46.5\ngini = 0.42\nsamples = 40\nvalue = [28, 12]\nclass = No"] ;
899 -> 900 ;
901 [label="Age <= 46.5\ngini = 0.48\nsamples = 5\nvalue = [2, 3]\nclass = Yes"] ;
900 -> 901 ;
902 [label="Sales <= 45.0\ngini = 0.375\nsamples = 4\nvalue = [1, 3]\nclass = Yes"] ;
901 -> 902 ;
903 [label="Duration <= 11.5\ngini = 0.5\nsamples = 2\nvalue = [1, 1]\nclass = No"] ;
902 -> 903 ;
904 [label="gini = 0.0\nsamples = 1\nvalue = [1, 0]\nclass = No"] ;
903 -> 904 ;
905 [label="gini = 0.0\nsamples = 1\nvalue = [0, 1]\nclass = Yes"] ;
903 -> 905 ;
906 [label="gini = 0.0\nsamples = 2\nvalue = [0, 2]\nclass = Yes"] ;
902 -> 906 ;
907 [label="gini = 0.0\nsamples = 1\nvalue = [1, 0]\nclass = No"] ;
901 -> 907 ;
908 [label="Commision <= 20.79\ngini = 0.382\nsamples = 35\nvalue = [26, 9]\nclass = No"] ;
900 -> 908 ;
909 [label="Sales <= 89.0\ngini = 0.35\nsamples = 31\nvalue = [24, 7]\nclass = No"] ;
908 -> 909 ;
910 [label="Sales <= 83.5\ngini = 0.403\nsamples = 25\nvalue = [18, 7]\nclass = No"] ;
909 -> 910 ;
911 [label="Age <= 36.5\ngini = 0.375\nsamples = 24\nvalue = [18, 6]\nclass = No"] ;
910 -> 911 ;
912 [label="Duration <= 7.5\ngini = 0.408\nsamples = 21\nvalue = [15, 6]\nclass = No"] ;
911 -> 912 ;
913 [label="Sales <= 63.5\ngini = 0.5\nsamples = 4\nvalue = [2, 2]\nclass = No"] ;
912 -> 913 ;
914 [label="gini = 0.0\nsamples = 1\nvalue = [0, 1]\nclass = Yes"] ;
913 -> 914 ;
915 [label="Duration <= 5.5\ngini = 0.444\nsamples = 3\nvalue = [2, 1]\nclass = No"] ;
913 -> 915 ;
916 [label="gini = 0.0\nsamples = 1\nvalue = [1, 0]\nclass = No"] ;
915 -> 916 ;
917 [label="Sales <= 76.5\ngini = 0.5\nsamples = 2\nvalue = [1, 1]\nclass = No"] ;
915 -> 917 ;
918 [label="gini = 0.0\nsamples = 1\nvalue = [0, 1]\nclass = Yes"] ;
917 -> 918 ;
919 [label="gini = 0.0\nsamples = 1\nvalue = [1, 0]\nclass = No"] ;
917 -> 919 ;
920 [label="Duration <= 9.5\ngini = 0.36\nsamples = 17\nvalue = [13, 4]\nclass = No"] ;
912 -> 920 ;
921 [label="gini = 0.0\nsamples = 6\nvalue = [6, 0]\nclass = No"] ;
920 -> 921 ;
922 [label="Duration <= 10.5\ngini = 0.463\nsamples = 11\nvalue = [7, 4]\nclass = No"] ;
920 -> 922 ;
923 [label="gini = 0.0\nsamples = 1\nvalue = [0, 1]\nclass = Yes"] ;
922 -> 923 ;
924 [label="Sales <= 65.5\ngini = 0.42\nsamples = 10\nvalue = [7, 3]\nclass = No"] ;
922 -> 924 ;
925 [label="Sales <= 50.5\ngini = 0.278\nsamples = 6\nvalue = [5, 1]\nclass = No"] ;
924 -> 925 ;
926 [label="Sales <= 48.0\ngini = 0.5\nsamples = 2\nvalue = [1, 1]\nclass = No"] ;
925 -> 926 ;
927 [label="gini = 0.0\nsamples = 1\nvalue = [1, 0]\nclass = No"] ;
926 -> 927 ;
928 [label="gini = 0.0\nsamples = 1\nvalue = [0, 1]\nclass = Yes"] ;
926 -> 928 ;
929 [label="gini = 0.0\nsamples = 4\nvalue = [4, 0]\nclass = No"] ;
925 -> 929 ;
930 [label="Sales <= 70.5\ngini = 0.5\nsamples = 4\nvalue = [2, 2]\nclass = No"] ;
924 -> 930 ;
931 [label="gini = 0.0\nsamples = 2\nvalue = [0, 2]\nclass = Yes"] ;
930 -> 931 ;
932 [label="gini = 0.0\nsamples = 2\nvalue = [2, 0]\nclass = No"] ;
930 -> 932 ;
933 [label="gini = 0.0\nsamples = 3\nvalue = [3, 0]\nclass = No"] ;
911 -> 933 ;
934 [label="gini = 0.0\nsamples = 1\nvalue = [0, 1]\nclass = Yes"] ;
910 -> 934 ;
935 [label="gini = 0.0\nsamples = 6\nvalue = [6, 0]\nclass = No"] ;
909 -> 935 ;
936 [label="Age <= 50.0\ngini = 0.5\nsamples = 4\nvalue = [2, 2]\nclass = No"] ;
908 -> 936 ;
937 [label="gini = 0.0\nsamples = 2\nvalue = [0, 2]\nclass = Yes"] ;
936 -> 937 ;
938 [label="gini = 0.0\nsamples = 2\nvalue = [2, 0]\nclass = No"] ;
936 -> 938 ;
939 [label="gini = 0.0\nsamples = 1\nvalue = [0, 1]\nclass = Yes"] ;
899 -> 939 ;
940 [label="gini = 0.0\nsamples = 5\nvalue = [5, 0]\nclass = No"] ;
898 -> 940 ;
941 [label="Sales <= 56.5\ngini = 0.375\nsamples = 4\nvalue = [1, 3]\nclass = Yes"] ;
897 -> 941 ;
942 [label="gini = 0.0\nsamples = 2\nvalue = [0, 2]\nclass = Yes"] ;
941 -> 942 ;
943 [label="Sales <= 79.0\ngini = 0.5\nsamples = 2\nvalue = [1, 1]\nclass = No"] ;
941 -> 943 ;
944 [label="gini = 0.0\nsamples = 1\nvalue = [1, 0]\nclass = No"] ;
943 -> 944 ;
945 [label="gini = 0.0\nsamples = 1\nvalue = [0, 1]\nclass = Yes"] ;
943 -> 945 ;
946 [label="Duration <= 22.5\ngini = 0.32\nsamples = 35\nvalue = [28, 7]\nclass = No"] ;
896 -> 946 ;
947 [label="Sales <= 92.5\ngini = 0.384\nsamples = 27\nvalue = [20, 7]\nclass = No"] ;
946 -> 947 ;
948 [label="Duration <= 7.5\ngini = 0.308\nsamples = 21\nvalue = [17, 4]\nclass = No"] ;
947 -> 948 ;
949 [label="Age <= 42.5\ngini = 0.5\nsamples = 4\nvalue = [2, 2]\nclass = No"] ;
948 -> 949 ;
950 [label="gini = 0.0\nsamples = 2\nvalue = [2, 0]\nclass = No"] ;
949 -> 950 ;
951 [label="gini = 0.0\nsamples = 2\nvalue = [0, 2]\nclass = Yes"] ;
949 -> 951 ;
952 [label="Destination <= 1.5\ngini = 0.208\nsamples = 17\nvalue = [15, 2]\nclass = No"] ;
948 -> 952 ;
953 [label="Agency_Code <= 1.5\ngini = 0.408\nsamples = 7\nvalue = [5, 2]\nclass = No"] ;
952 -> 953 ;
954 [label="Sales <= 56.75\ngini = 0.278\nsamples = 6\nvalue = [5, 1]\nclass = No"] ;
953 -> 954 ;
955 [label="Age <= 41.5\ngini = 0.5\nsamples = 2\nvalue = [1, 1]\nclass = No"] ;
954 -> 955 ;
956 [label="gini = 0.0\nsamples = 1\nvalue = [1, 0]\nclass = No"] ;
955 -> 956 ;
957 [label="gini = 0.0\nsamples = 1\nvalue = [0, 1]\nclass = Yes"] ;
955 -> 957 ;
958 [label="gini = 0.0\nsamples = 4\nvalue = [4, 0]\nclass = No"] ;
954 -> 958 ;
959 [label="gini = 0.0\nsamples = 1\nvalue = [0, 1]\nclass = Yes"] ;
953 -> 959 ;
960 [label="gini = 0.0\nsamples = 10\nvalue = [10, 0]\nclass = No"] ;
952 -> 960 ;
961 [label="Duration <= 13.5\ngini = 0.5\nsamples = 6\nvalue = [3, 3]\nclass = No"] ;
947 -> 961 ;
962 [label="gini = 0.0\nsamples = 2\nvalue = [2, 0]\nclass = No"] ;
961 -> 962 ;
963 [label="Sales <= 135.6\ngini = 0.375\nsamples = 4\nvalue = [1, 3]\nclass = Yes"] ;
961 -> 963 ;
964 [label="gini = 0.0\nsamples = 3\nvalue = [0, 3]\nclass = Yes"] ;
963 -> 964 ;
965 [label="gini = 0.0\nsamples = 1\nvalue = [1, 0]\nclass = No"] ;
963 -> 965 ;
966 [label="gini = 0.0\nsamples = 8\nvalue = [8, 0]\nclass = No"] ;
946 -> 966 ;
967 [label="gini = 0.0\nsamples = 9\nvalue = [9, 0]\nclass = No"] ;
887 -> 967 ;
968 [label="Duration <= 37.0\ngini = 0.443\nsamples = 139\nvalue = [93, 46]\nclass = No"] ;
862 -> 968 ;
969 [label="Duration <= 34.5\ngini = 0.499\nsamples = 21\nvalue = [10, 11]\nclass = Yes"] ;
968 -> 969 ;
970 [label="Commision <= 42.334\ngini = 0.469\nsamples = 16\nvalue = [10, 6]\nclass = No"] ;
969 -> 970 ;
971 [label="Sales <= 36.3\ngini = 0.355\nsamples = 13\nvalue = [10, 3]\nclass = No"] ;
970 -> 971 ;
972 [label="gini = 0.0\nsamples = 1\nvalue = [0, 1]\nclass = Yes"] ;
971 -> 972 ;
973 [label="Sales <= 89.0\ngini = 0.278\nsamples = 12\nvalue = [10, 2]\nclass = No"] ;
971 -> 973 ;
974 [label="gini = 0.0\nsamples = 8\nvalue = [8, 0]\nclass = No"] ;
973 -> 974 ;
975 [label="Age <= 35.0\ngini = 0.5\nsamples = 4\nvalue = [2, 2]\nclass = No"] ;
973 -> 975 ;
976 [label="gini = 0.0\nsamples = 1\nvalue = [1, 0]\nclass = No"] ;
975 -> 976 ;
977 [label="Commision <= 17.82\ngini = 0.444\nsamples = 3\nvalue = [1, 2]\nclass = Yes"] ;
975 -> 977 ;
978 [label="gini = 0.0\nsamples = 2\nvalue = [0, 2]\nclass = Yes"] ;
977 -> 978 ;
979 [label="gini = 0.0\nsamples = 1\nvalue = [1, 0]\nclass = No"] ;
977 -> 979 ;
980 [label="gini = 0.0\nsamples = 3\nvalue = [0, 3]\nclass = Yes"] ;
970 -> 980 ;
981 [label="gini = 0.0\nsamples = 5\nvalue = [0, 5]\nclass = Yes"] ;
969 -> 981 ;
982 [label="Sales <= 59.7\ngini = 0.417\nsamples = 118\nvalue = [83, 35]\nclass = No"] ;
968 -> 982 ;
983 [label="Duration <= 60.5\ngini = 0.476\nsamples = 41\nvalue = [25, 16]\nclass = No"] ;
982 -> 983 ;
984 [label="Age <= 37.5\ngini = 0.255\nsamples = 20\nvalue = [17, 3]\nclass = No"] ;
983 -> 984 ;
985 [label="Sales <= 57.5\ngini = 0.124\nsamples = 15\nvalue = [14, 1]\nclass = No"] ;
984 -> 985 ;
986 [label="gini = 0.0\nsamples = 13\nvalue = [13, 0]\nclass = No"] ;
985 -> 986 ;
987 [label="Destination <= 1.0\ngini = 0.5\nsamples = 2\nvalue = [1, 1]\nclass = No"] ;
985 -> 987 ;
988 [label="gini = 0.0\nsamples = 1\nvalue = [0, 1]\nclass = Yes"] ;
987 -> 988 ;
989 [label="gini = 0.0\nsamples = 1\nvalue = [1, 0]\nclass = No"] ;
987 -> 989 ;
990 [label="Age <= 41.0\ngini = 0.48\nsamples = 5\nvalue = [3, 2]\nclass = No"] ;
984 -> 990 ;
991 [label="gini = 0.0\nsamples = 2\nvalue = [0, 2]\nclass = Yes"] ;
990 -> 991 ;
992 [label="gini = 0.0\nsamples = 3\nvalue = [3, 0]\nclass = No"] ;
990 -> 992 ;
993 [label="Sales <= 54.0\ngini = 0.472\nsamples = 21\nvalue = [8, 13]\nclass = Yes"] ;
983 -> 993 ;
994 [label="Agency_Code <= 1.5\ngini = 0.498\nsamples = 17\nvalue = [8, 9]\nclass = Yes"] ;
993 -> 994 ;
995 [label="Duration <= 121.0\ngini = 0.32\nsamples = 5\nvalue = [4, 1]\nclass = No"] ;
994 -> 995 ;
996 [label="gini = 0.0\nsamples = 4\nvalue = [4, 0]\nclass = No"] ;
995 -> 996 ;
997 [label="gini = 0.0\nsamples = 1\nvalue = [0, 1]\nclass = Yes"] ;
995 -> 997 ;
998 [label="Duration <= 107.0\ngini = 0.444\nsamples = 12\nvalue = [4, 8]\nclass = Yes"] ;
994 -> 998 ;
999 [label="Sales <= 34.5\ngini = 0.32\nsamples = 10\nvalue = [2, 8]\nclass = Yes"] ;
998 -> 999 ;
1000 [label="gini = 0.5\nsamples = 2\nvalue = [1, 1]\nclass = No"] ;
999 -> 1000 ;
1001 [label="Duration <= 76.0\ngini = 0.219\nsamples = 8\nvalue = [1, 7]\nclass = Yes"] ;
999 -> 1001 ;
1002 [label="gini = 0.0\nsamples = 4\nvalue = [0, 4]\nclass = Yes"] ;
1001 -> 1002 ;
1003 [label="Duration <= 78.5\ngini = 0.375\nsamples = 4\nvalue = [1, 3]\nclass = Yes"] ;
1001 -> 1003 ;
1004 [label="gini = 0.0\nsamples = 1\nvalue = [1, 0]\nclass = No"] ;
1003 -> 1004 ;
1005 [label="gini = 0.0\nsamples = 3\nvalue = [0, 3]\nclass = Yes"] ;
1003 -> 1005 ;
1006 [label="gini = 0.0\nsamples = 2\nvalue = [2, 0]\nclass = No"] ;
998 -> 1006 ;
1007 [label="gini = 0.0\nsamples = 4\nvalue = [0, 4]\nclass = Yes"] ;
993 -> 1007 ;
1008 [label="Duration <= 75.5\ngini = 0.372\nsamples = 77\nvalue = [58, 19]\nclass = No"] ;
982 -> 1008 ;
1009 [label="Duration <= 74.5\ngini = 0.424\nsamples = 59\nvalue = [41, 18]\nclass = No"] ;
1008 -> 1009 ;
1010 [label="Destination <= 0.5\ngini = 0.404\nsamples = 57\nvalue = [41, 16]\nclass = No"] ;
1009 -> 1010 ;
1011 [label="gini = 0.0\nsamples = 11\nvalue = [11, 0]\nclass = No"] ;
1010 -> 1011 ;
1012 [label="Duration <= 39.5\ngini = 0.454\nsamples = 46\nvalue = [30, 16]\nclass = No"] ;
1010 -> 1012 ;
1013 [label="Age <= 36.5\ngini = 0.48\nsamples = 5\nvalue = [2, 3]\nclass = Yes"] ;
1012 -> 1013 ;
1014 [label="gini = 0.0\nsamples = 2\nvalue = [2, 0]\nclass = No"] ;
1013 -> 1014 ;
1015 [label="gini = 0.0\nsamples = 3\nvalue = [0, 3]\nclass = Yes"] ;
1013 -> 1015 ;
1016 [label="Age <= 49.0\ngini = 0.433\nsamples = 41\nvalue = [28, 13]\nclass = No"] ;
1012 -> 1016 ;
1017 [label="Sales <= 79.6\ngini = 0.391\nsamples = 30\nvalue = [22, 8]\nclass = No"] ;
1016 -> 1017 ;
1018 [label="Duration <= 52.0\ngini = 0.496\nsamples = 11\nvalue = [6, 5]\nclass = No"] ;
1017 -> 1018 ;
1019 [label="Duration <= 43.0\ngini = 0.444\nsamples = 6\nvalue = [2, 4]\nclass = Yes"] ;
1018 -> 1019 ;
1020 [label="Sales <= 76.6\ngini = 0.444\nsamples = 3\nvalue = [2, 1]\nclass = No"] ;
1019 -> 1020 ;
1021 [label="gini = 0.0\nsamples = 2\nvalue = [2, 0]\nclass = No"] ;
1020 -> 1021 ;
1022 [label="gini = 0.0\nsamples = 1\nvalue = [0, 1]\nclass = Yes"] ;
1020 -> 1022 ;
1023 [label="gini = 0.0\nsamples = 3\nvalue = [0, 3]\nclass = Yes"] ;
1019 -> 1023 ;
1024 [label="Duration <= 66.5\ngini = 0.32\nsamples = 5\nvalue = [4, 1]\nclass = No"] ;
1018 -> 1024 ;
1025 [label="gini = 0.0\nsamples = 4\nvalue = [4, 0]\nclass = No"] ;
1024 -> 1025 ;
1026 [label="gini = 0.0\nsamples = 1\nvalue = [0, 1]\nclass = Yes"] ;
1024 -> 1026 ;
1027 [label="Sales <= 110.45\ngini = 0.266\nsamples = 19\nvalue = [16, 3]\nclass = No"] ;
1017 -> 1027 ;
1028 [label="gini = 0.0\nsamples = 9\nvalue = [9, 0]\nclass = No"] ;
1027 -> 1028 ;
1029 [label="Duration <= 73.5\ngini = 0.42\nsamples = 10\nvalue = [7, 3]\nclass = No"] ;
1027 -> 1029 ;
1030 [label="Duration <= 57.0\ngini = 0.346\nsamples = 9\nvalue = [7, 2]\nclass = No"] ;
1029 -> 1030 ;
1031 [label="Destination <= 1.5\ngini = 0.5\nsamples = 4\nvalue = [2, 2]\nclass = No"] ;
1030 -> 1031 ;
1032 [label="gini = 0.0\nsamples = 1\nvalue = [0, 1]\nclass = Yes"] ;
1031 -> 1032 ;
1033 [label="Duration <= 53.5\ngini = 0.444\nsamples = 3\nvalue = [2, 1]\nclass = No"] ;
1031 -> 1033 ;
1034 [label="gini = 0.0\nsamples = 2\nvalue = [2, 0]\nclass = No"] ;
1033 -> 1034 ;
1035 [label="gini = 0.0\nsamples = 1\nvalue = [0, 1]\nclass = Yes"] ;
1033 -> 1035 ;
1036 [label="gini = 0.0\nsamples = 5\nvalue = [5, 0]\nclass = No"] ;
1030 -> 1036 ;
1037 [label="gini = 0.0\nsamples = 1\nvalue = [0, 1]\nclass = Yes"] ;
1029 -> 1037 ;
1038 [label="Sales <= 88.05\ngini = 0.496\nsamples = 11\nvalue = [6, 5]\nclass = No"] ;
1016 -> 1038 ;
1039 [label="gini = 0.0\nsamples = 3\nvalue = [3, 0]\nclass = No"] ;
1038 -> 1039 ;
1040 [label="Commision <= 21.544\ngini = 0.469\nsamples = 8\nvalue = [3, 5]\nclass = Yes"] ;
1038 -> 1040 ;
1041 [label="gini = 0.0\nsamples = 4\nvalue = [0, 4]\nclass = Yes"] ;
1040 -> 1041 ;
1042 [label="Duration <= 69.5\ngini = 0.375\nsamples = 4\nvalue = [3, 1]\nclass = No"] ;
1040 -> 1042 ;
1043 [label="gini = 0.0\nsamples = 3\nvalue = [3, 0]\nclass = No"] ;
1042 -> 1043 ;
1044 [label="gini = 0.0\nsamples = 1\nvalue = [0, 1]\nclass = Yes"] ;
1042 -> 1044 ;
1045 [label="gini = 0.0\nsamples = 2\nvalue = [0, 2]\nclass = Yes"] ;
1009 -> 1045 ;
1046 [label="Duration <= 116.0\ngini = 0.105\nsamples = 18\nvalue = [17, 1]\nclass = No"] ;
1008 -> 1046 ;
1047 [label="gini = 0.0\nsamples = 14\nvalue = [14, 0]\nclass = No"] ;
1046 -> 1047 ;
1048 [label="Age <= 45.5\ngini = 0.375\nsamples = 4\nvalue = [3, 1]\nclass = No"] ;
1046 -> 1048 ;
1049 [label="gini = 0.0\nsamples = 3\nvalue = [3, 0]\nclass = No"] ;
1048 -> 1049 ;
1050 [label="gini = 0.0\nsamples = 1\nvalue = [0, 1]\nclass = Yes"] ;
1048 -> 1050 ;
1051 [label="Sales <= 37.5\ngini = 0.172\nsamples = 21\nvalue = [19, 2]\nclass = No"] ;
861 -> 1051 ;
1052 [label="gini = 0.0\nsamples = 1\nvalue = [0, 1]\nclass = Yes"] ;
1051 -> 1052 ;
1053 [label="Destination <= 1.5\ngini = 0.095\nsamples = 20\nvalue = [19, 1]\nclass = No"] ;
1051 -> 1053 ;
1054 [label="gini = 0.0\nsamples = 15\nvalue = [15, 0]\nclass = No"] ;
1053 -> 1054 ;
1055 [label="Commision <= 20.79\ngini = 0.32\nsamples = 5\nvalue = [4, 1]\nclass = No"] ;
1053 -> 1055 ;
1056 [label="Sales <= 113.25\ngini = 0.5\nsamples = 2\nvalue = [1, 1]\nclass = No"] ;
1055 -> 1056 ;
1057 [label="gini = 0.0\nsamples = 1\nvalue = [0, 1]\nclass = Yes"] ;
1056 -> 1057 ;
1058 [label="gini = 0.0\nsamples = 1\nvalue = [1, 0]\nclass = No"] ;
1056 -> 1058 ;
1059 [label="gini = 0.0\nsamples = 3\nvalue = [3, 0]\nclass = No"] ;
1055 -> 1059 ;
1060 [label="Commision <= 21.435\ngini = 0.48\nsamples = 35\nvalue = [14, 21]\nclass = Yes"] ;
770 -> 1060 ;
1061 [label="gini = 0.0\nsamples = 4\nvalue = [4, 0]\nclass = No"] ;
1060 -> 1061 ;
1062 [label="Age <= 24.0\ngini = 0.437\nsamples = 31\nvalue = [10, 21]\nclass = Yes"] ;
1060 -> 1062 ;
1063 [label="gini = 0.0\nsamples = 1\nvalue = [1, 0]\nclass = No"] ;
1062 -> 1063 ;
1064 [label="Product Name <= 3.5\ngini = 0.42\nsamples = 30\nvalue = [9, 21]\nclass = Yes"] ;
1062 -> 1064 ;
1065 [label="Age <= 33.5\ngini = 0.365\nsamples = 25\nvalue = [6, 19]\nclass = Yes"] ;
1064 -> 1065 ;
1066 [label="Age <= 29.0\ngini = 0.18\nsamples = 10\nvalue = [1, 9]\nclass = Yes"] ;
1065 -> 1066 ;
1067 [label="Destination <= 0.5\ngini = 0.444\nsamples = 3\nvalue = [1, 2]\nclass = Yes"] ;
1066 -> 1067 ;
1068 [label="gini = 0.0\nsamples = 1\nvalue = [0, 1]\nclass = Yes"] ;
1067 -> 1068 ;
1069 [label="gini = 0.5\nsamples = 2\nvalue = [1, 1]\nclass = No"] ;
1067 -> 1069 ;
1070 [label="gini = 0.0\nsamples = 7\nvalue = [0, 7]\nclass = Yes"] ;
1066 -> 1070 ;
1071 [label="Duration <= 89.0\ngini = 0.444\nsamples = 15\nvalue = [5, 10]\nclass = Yes"] ;
1065 -> 1071 ;
1072 [label="Age <= 55.5\ngini = 0.245\nsamples = 7\nvalue = [1, 6]\nclass = Yes"] ;
1071 -> 1072 ;
1073 [label="gini = 0.0\nsamples = 6\nvalue = [0, 6]\nclass = Yes"] ;
1072 -> 1073 ;
1074 [label="gini = 0.0\nsamples = 1\nvalue = [1, 0]\nclass = No"] ;
1072 -> 1074 ;
1075 [label="Age <= 49.5\ngini = 0.5\nsamples = 8\nvalue = [4, 4]\nclass = No"] ;
1071 -> 1075 ;
1076 [label="Age <= 39.5\ngini = 0.444\nsamples = 6\nvalue = [4, 2]\nclass = No"] ;
1075 -> 1076 ;
1077 [label="Age <= 34.5\ngini = 0.5\nsamples = 4\nvalue = [2, 2]\nclass = No"] ;
1076 -> 1077 ;
1078 [label="gini = 0.0\nsamples = 1\nvalue = [1, 0]\nclass = No"] ;
1077 -> 1078 ;
1079 [label="Destination <= 0.5\ngini = 0.444\nsamples = 3\nvalue = [1, 2]\nclass = Yes"] ;
1077 -> 1079 ;
1080 [label="gini = 0.0\nsamples = 1\nvalue = [0, 1]\nclass = Yes"] ;
1079 -> 1080 ;
1081 [label="Age <= 38.0\ngini = 0.5\nsamples = 2\nvalue = [1, 1]\nclass = No"] ;
1079 -> 1081 ;
1082 [label="gini = 0.0\nsamples = 1\nvalue = [1, 0]\nclass = No"] ;
1081 -> 1082 ;
1083 [label="gini = 0.0\nsamples = 1\nvalue = [0, 1]\nclass = Yes"] ;
1081 -> 1083 ;
1084 [label="gini = 0.0\nsamples = 2\nvalue = [2, 0]\nclass = No"] ;
1076 -> 1084 ;
1085 [label="gini = 0.0\nsamples = 2\nvalue = [0, 2]\nclass = Yes"] ;
1075 -> 1085 ;
1086 [label="Age <= 37.0\ngini = 0.48\nsamples = 5\nvalue = [3, 2]\nclass = No"] ;
1064 -> 1086 ;
1087 [label="gini = 0.0\nsamples = 2\nvalue = [2, 0]\nclass = No"] ;
1086 -> 1087 ;
1088 [label="Destination <= 0.5\ngini = 0.444\nsamples = 3\nvalue = [1, 2]\nclass = Yes"] ;
1086 -> 1088 ;
1089 [label="gini = 0.0\nsamples = 1\nvalue = [1, 0]\nclass = No"] ;
1088 -> 1089 ;
1090 [label="gini = 0.0\nsamples = 2\nvalue = [0, 2]\nclass = Yes"] ;
1088 -> 1090 ;
}